tree
version=v4
num_class=3
num_tree_per_iteration=3
label_index=0
max_feature_idx=28
objective=multiclass num_class:3
feature_names=fever cough breathlessness chest_pain fatigue nausea vomiting diarrhea abdominal_pain headache body_ache dizziness chills rash weight_loss night_sweats frequent_urination excessive_thirst blurred_vision heart_rate spo2 temperature_f bp_systolic bp_diastolic age is_pregnant has_diabetes has_hypertension gender_encoded
feature_infos=[0:1] [0:1] [0:1] [0:1] [0:1] [0:1] [0:1] [0:1] [0:1] [0:1] [0:1] [0:1] [0:1] [0:1] [0:1] [0:1] [0:1] [0:1] [0:1] [50:169.30000000000001] [87.200000000000003:100] [96.799999999999997:104.8] [80:191.40000000000001] [50:120] [1:84] [0:1] [0:1] [0:1] [0:1]
tree_sizes=3359 3398 3191 3455 3412 3421 3446 3429 3417 3445 3402 3455 3411 3444 3426 3414 3446 3442 3445 3434 3440 3453 3417 3438 3435 3432 3439 3450 3437 3479 3444 3448 3475 3418 3441 3437 3481 3440 3445 3443 3440 3452 3483 3455 3442 3477 3438 3441 3484 3435 3471 3475 3451 3461 3509 3457 3468 3521 3457 3433 3521 3436 3461 3519 3456 3460 3487 3436 3451 3502 3450 3441 3522 3463 3452 3460 3423 3448 3495 3461 3455 3470 3460 3454 3517 3469 3441 3424 3461 3459 3526 3448 3466 3451 3434 3455 3532 3436 3467 3497 3449 3438 3519 3475 3473 3408 3458 3441 3490 3461 3445 3494 3461 3411 3495 3473 3426 3505 3458 3421 3403 3449 3446 3441 3419 3428 3502 3450 3437 3515 3461 3448 3490 3459 3441 3428 3466 3457 3467 3469 3417 3433 3407 3451 3466 3433 3438 3472 3434 3439 3485 3415 3467 3457 3457 3523 3467 3460 3433 3470 3468 3497 3575 3446 3482 3514 3494 3460 3458 3444 3514 3539 3451 3491 3536 3442 3474 3539 3487 3419 3525 3447 3419 3445 3426 3456 3517 3433 3435 3435 3463 3451 3447 3437 3468 3499 3443 3458 3465 3441 3440 3552 3445 3470 3447 3436 3470 3446 3461 3441 3446 3469 3431 3435 3469 3442 3527 3477 3463 3450 3441 3487 3473 3471 3467 3522 3426 3456 3504 3454 3463 3498 3461 3444 3536 3464 3475 3537 3467 3484 3498 3472 3437 3484 3446 3465 3539 3457 3445 3550 3469 3480 3487 3479 3459 3475 3449 3465 3470 3470 3464 3507 3476 3468 3480 3469 3459 3462 3475 3461 3456 3474 3435 3431 3465 3460 3455 3468 3465 3466 3475 3454 3478 3474 3447 3468 3462 3450 3463 3468 3463 3454 3476 3472 3507 3492 3465 3527 3462 3456

Tree=0
num_leaves=31
num_cat=0
split_feature=20 21 16 8 4 5 12 13 1 20 7 9 11 17 9 14 2 20 5 13 21 19 4 13 12 24 21 19 20 19
split_gain=47.597 43.3573 35.2357 40.3061 56.209 51.0937 31.8835 39.9867 52.3595 12.431 12.1946 9.80512 9.25962 8.9102 17.2692 6.93371 9.05867 9.01246 11.2554 12.0273 5.51492 2.65377 1.28334 1.40282 3.66802 2.72724 3.52268 0.243636 0.502094 1.77636e-15
threshold=95.550000000000011 100.45000000000002 1.0000000180025095e-35 1.0000000180025095e-35 1.0000000180025095e-35 1.0000000180025095e-35 1.0000000180025095e-35 1.0000000180025095e-35 1.0000000180025095e-35 97.250000000000014 1.0000000180025095e-35 1.0000000180025095e-35 1.0000000180025095e-35 1.0000000180025095e-35 1.0000000180025095e-35 1.0000000180025095e-35 1.0000000180025095e-35 99.450000000000017 1.0000000180025095e-35 1.0000000180025095e-35 98.550000000000011 69.750000000000014 1.0000000180025095e-35 1.0000000180025095e-35 1.0000000180025095e-35 11.500000000000002 102.95000000000002 79.050000000000011 94.950000000000017 78.050000000000011
decision_type=2 2 2 2 2 2 2 2 2 2 2 2 2 2 2 2 2 2 2 2 2 2 2 2 2 2 2 2 2 2
left_child=21 2 3 4 6 9 7 8 -2 -5 20 15 13 14 -6 16 17 18 19 -3 -7 -1 23 24 25 -13 -27 28 -23 -24
right_child=1 11 -4 5 12 10 -8 -9 -10 -11 -12 22 -14 -15 -16 -17 -18 -19 -20 -21 -22 27 29 -25 -26 26 -28 -29 -30 -31
leaf_value=-3.0108899416319379 -2.5541446151816056 -2.8397862230977453 -3.1489950858773939 -2.4884922220947812 -2.7092392318326537 -2.7872911366631059 -3.1067962918023935 -3.1043140097979816 -3.066878513623339 -2.8641532258711413 -3.1489950858773939 -3.1489950858773939 -3.1489950858773939 -3.1489950858773939 -3.0372923956788633 -3.1489950858773939 -3.1489950858773939 -3.1489950858773939 -3.1489950858773939 -3.1489950858773939 -3.047717980097393 -3.1489950858773939 -3.1489950858773934 -3.1489950858773939 -3.1489950858773939 -2.9728609888686965 -3.1489950858773939 -3.1489950858773939 -3.0730372565423929 -3.1489950858773939
leaf_weight=1.4481719732284535 10.927115797996523 7.438337862491613 11.322071790695189 1.513997972011569 2.5013879537582415 1.3823459744453459 2.3697359561920157 2.2380839586257926 2.4355619549751273 2.1064319610595703 17.048933684825897 2.1064319610595721 4.6078199148178092 2.2380839586257935 4.4761679172515869 5.397731900215148 4.1470379233360282 2.5672139525413504 2.1064319610595694 1.5139979720115659 1.9747799634933469 2.5672139525413509 2.5013879537582424 7.7674678564071646 7.1750338673591605 4.5419939160346985 1.5139979720115659 68.327386736869812 1.3165199756622312 17.443889677524567
leaf_count=22 166 113 172 23 38 21 36 34 37 32 259 32 70 34 68 82 63 39 32 23 30 39 38 118 109 69 23 1038 20 265
internal_value=-3.0804 -3.04477 -2.98814 -2.95552 -2.88165 -3.05327 -2.76503 -2.71312 -2.6476 -2.70706 -3.11469 -3.10218 -3.03325 -2.97538 -2.91969 -3.04973 -3.01959 -2.9802 -2.94102 -2.89208 -2.94048 -3.14492 -3.13041 -3.11437 -3.09684 -3.05098 -3.01689 -3.14761 -3.12325 -3.149
internal_weight=207.023 133.363 67.1425 55.8204 31.794 24.0265 17.9705 15.6008 13.3627 3.62043 20.4061 66.221 13.8235 9.21564 6.97756 23.1708 17.773 13.626 11.0588 8.95234 3.35713 73.6593 43.0502 23.1049 15.3375 8.16242 6.05599 72.2111 3.88373 19.9453
internal_count=3145 2026 1020 848 483 365 273 237 203 55 310 1006 210 140 106 352 270 207 168 136 51 1119 654 351 233 124 92 1097 59 303
is_linear=0
shrinkage=1


Tree=1
num_leaves=31
num_cat=0
split_feature=20 21 12 13 11 19 15 11 19 21 20 24 27 1 14 10 19 9 0 9 21 5 21 20 24 19 21 23 19 24
split_gain=299.799 225.933 158.596 185.19 143.048 128.297 82.9007 56.5595 62.4121 36.4999 33.736 34.0571 32.0012 31.9157 25.7077 14.6741 10.9314 9.97387 7.31478 6.3986 5.10027 2.6618 1.0233 0.884233 0.775382 0.666683 0.328213 0.296945 0.367222 0.266673
threshold=94.950000000000017 103.05000000000001 1.0000000180025095e-35 1.0000000180025095e-35 1.0000000180025095e-35 119.95000000000002 1.0000000180025095e-35 1.0000000180025095e-35 119.95000000000002 103.05000000000001 89.950000000000017 60.500000000000007 1.0000000180025095e-35 1.0000000180025095e-35 1.0000000180025095e-35 1.0000000180025095e-35 87.250000000000014 1.0000000180025095e-35 1.0000000180025095e-35 1.0000000180025095e-35 100.95000000000002 1.0000000180025095e-35 99.450000000000017 96.950000000000017 34.500000000000007 102.45000000000002 98.750000000000014 71.550000000000011 107.65000000000002 26.500000000000004
decision_type=2 2 2 2 2 2 2 2 2 2 2 2 2 2 2 2 2 2 2 2 2 2 2 2 2 2 2 2 2 2
left_child=7 2 3 4 5 6 18 8 9 10 26 12 13 -12 -8 20 19 29 -2 -6 -5 -19 -9 -18 27 -13 -1 28 -17 -4
right_child=1 -3 17 15 16 -7 14 22 -10 -11 11 25 -14 -15 -16 24 23 21 -20 -21 -22 -23 -24 -25 -26 -27 -28 -29 -30 -31
leaf_value=-0.58215698474789046 -0.81562688170938724 -0.55548965049248988 -0.64882532038639174 -0.74216099028029359 -0.71033223649158972 -0.55548965049248988 -0.74154081971621455 -0.55634437274426551 -0.55548965049248988 -0.55548965049248988 -0.67650108324808889 -0.59549065187559069 -0.56437876191095671 -0.78650318561194799 -0.57087465102445167 -0.58215698474789046 -0.55548965049248988 -0.60734280043354649 -0.79066614156373871 -0.59358584228591915 -0.6282187439163095 -0.55548965049248988 -0.59358584228591915 -0.59549065187559069 -0.59358584228591915 -0.55548965049248988 -0.55548965049248988 -0.55548965049248988 -0.55548965049248988 -0.67549265464179231
leaf_weight=7.4998122453689602 305.99233961105347 73.873150616884232 7.4998122453689557 7.4998122453689566 11.624708980321886 23.249417960643768 16.124596327543259 116.99707102775574 62.623432248830795 23.624408572912216 44.623882859945297 7.4998122453689602 11.249718368053435 64.498385310173035 19.49951183795929 14.999624490737917 20.999474287033085 13.499662041664122 190.49523103237152 7.8748028576374045 8.2497934699058515 37.12407061457634 7.8748028576374045 7.4998122453689566 13.124671429395674 9.3747653067111951 11.99969959259033 16.874577552080154 7.8748028576374045 7.4998122453689575
leaf_count=20 816 197 20 20 31 62 43 312 167 63 119 20 30 172 52 40 56 36 508 21 22 99 21 20 35 25 32 45 21 20
internal_value=-0.688275 -0.722222 -0.738921 -0.753411 -0.771116 -0.78543 -0.795477 -0.613391 -0.6415 -0.671362 -0.688826 -0.706313 -0.724964 -0.74152 -0.648124 -0.597749 -0.605491 -0.590538 -0.80605 -0.663185 -0.682477 -0.569317 -0.558693 -0.566016 -0.572511 -0.573268 -0.565746 -0.565553 -0.572976 -0.662159
internal_weight=1179.35 811.48 737.607 671.983 603.36 555.361 532.112 367.866 242.994 180.37 156.746 137.247 120.372 109.122 35.6241 68.6233 47.9988 65.6234 496.488 19.4995 15.7496 50.6237 124.872 28.4993 52.8737 16.8746 19.4995 39.749 22.8744 14.9996
internal_count=3145 2164 1967 1792 1609 1481 1419 981 648 481 418 366 321 291 95 183 128 175 1324 52 42 135 333 76 141 45 52 106 61 40
is_linear=0
shrinkage=1


Tree=2
num_leaves=29
num_cat=0
split_feature=8 11 4 21 3 19 21 2 21 27 20 19 5 16 20 3 7 20 19 7 22 28 17 22 21 19 19 19
split_gain=262.774 171.9 232.238 120.495 118.309 69.4784 68.9661 60.7838 42.972 41.4831 45.2355 30.6251 22.3316 19.9444 17.8848 14.9327 7.94758 7.3165 4.48134 3.9287 2.5544 2.28412 2.2365 1.2869 0.689416 0.716939 2.84217e-14 1.42109e-14
threshold=1.0000000180025095e-35 1.0000000180025095e-35 1.0000000180025095e-35 103.05000000000001 1.0000000180025095e-35 119.95000000000002 103.05000000000001 1.0000000180025095e-35 99.450000000000017 1.0000000180025095e-35 89.950000000000017 118.15000000000002 1.0000000180025095e-35 1.0000000180025095e-35 94.550000000000011 1.0000000180025095e-35 1.0000000180025095e-35 96.850000000000009 90.15000000000002 1.0000000180025095e-35 112.35000000000001 1.0000000180025095e-35 1.0000000180025095e-35 111.25000000000001 99.450000000000017 79.350000000000009 135.35000000000005 114.35000000000001
decision_type=2 2 2 2 2 2 2 2 2 2 2 2 2 2 2 2 2 2 2 2 2 2 2 2 2 2 2 2
left_child=1 2 5 4 11 6 7 8 13 10 -9 14 16 -1 -4 -10 -2 24 -19 23 -18 -6 -16 -14 25 -3 -7 -8
right_child=12 17 3 -5 21 26 27 9 15 -11 -12 -13 19 -15 22 -17 20 18 -20 -21 -22 -23 -24 -25 -26 -27 -28 -29
leaf_value=-0.79211585033125609 -0.80758855095039572 -0.89067194158371199 -0.82250366246098117 -0.91672351322297208 -0.85962057336721998 -0.91672351322297208 -0.91672351322297208 -0.91672351322297208 -0.86497672693591754 -0.90944784907146703 -0.70450779096447325 -0.87634357718211886 -0.72828381169899037 -0.65568150245381984 -0.67074161845973246 -0.75665890188986018 -0.74115857391491458 -0.810675196348004 -0.9050191839357683 -0.64752393961728383 -0.66098391829756831 -0.91672351322297208 -0.64752393961728383 -0.67662659622330423 -0.88788070176521983 -0.91672351322297208 -0.91672351322297208 -0.91672351322297208
leaf_weight=85.066999524831772 13.744449704885483 11.515620023012159 7.4294322729110709 28.603314250707626 12.25856325030327 63.893117547035217 52.74896913766861 11.144148409366606 171.99135711789131 13.744449704885481 101.78322213888168 7.4294322729110709 7.4294322729110744 12.258563250303267 159.36132225394249 13.744449704885481 8.5438471138477308 12.25856325030327 8.5438471138477308 104.75499504804611 7.4294322729110727 16.344751000404358 56.092213660478592 13.744449704885481 10.401205182075499 127.78623509407043 19.68799552321434 8.5438471138477308
leaf_count=229 37 31 20 77 33 172 142 30 463 37 274 20 20 33 429 37 23 33 23 282 20 44 151 37 28 344 53 23
internal_value=-0.794835 -0.813428 -0.794889 -0.721954 -0.700437 -0.8327 -0.817791 -0.802991 -0.828757 -0.745415 -0.72545 -0.676615 -0.673866 -0.774931 -0.669957 -0.856961 -0.751839 -0.904994 -0.849424 -0.655465 -0.703868 -0.892251 -0.664697 -0.694752 -0.912716 -0.91457 -0.916724 -0.916724
internal_weight=1168.28 1012.63 842.126 287.519 258.916 554.607 471.026 409.733 283.061 126.672 112.927 230.312 155.647 97.3256 222.883 185.736 29.7177 170.505 20.8024 125.929 15.9733 28.6033 215.454 21.1739 149.703 139.302 83.5811 61.2928
internal_count=3145 2726 2267 774 697 1493 1268 1103 762 341 304 620 419 262 600 500 80 459 56 339 43 77 580 57 403 375 225 165
is_linear=0
shrinkage=1


Tree=3
num_leaves=31
num_cat=0
split_feature=20 21 16 3 5 4 13 15 10 12 21 21 20 14 24 22 24 9 10 10 24 20 9 4 19 19 4 22 4 13
split_gain=40.9631 33.2977 24.2853 20.4881 35.8116 31.7362 33.9778 24.2487 6.39523 6.10887 6.58497 9.16065 7.19891 8.29886 5.53055 5.41182 10.7168 5.11703 23.7765 9.49285 2.36303 2.00426 0.963003 2.32793 0.58355 8.40642e-05 7.6312e-05 6.47084e-05 4.4097e-05 0.000121164
threshold=95.15000000000002 100.85000000000001 1.0000000180025095e-35 1.0000000180025095e-35 1.0000000180025095e-35 1.0000000180025095e-35 1.0000000180025095e-35 1.0000000180025095e-35 1.0000000180025095e-35 1.0000000180025095e-35 103.05000000000001 102.75000000000001 96.950000000000017 1.0000000180025095e-35 46.500000000000007 100.25000000000001 11.500000000000002 1.0000000180025095e-35 1.0000000180025095e-35 1.0000000180025095e-35 62.500000000000007 98.950000000000017 1.0000000180025095e-35 1.0000000180025095e-35 89.050000000000011 68.65000000000002 1.0000000180025095e-35 131.95000000000002 1.0000000180025095e-35 1.0000000180025095e-35
decision_type=2 2 2 2 2 2 2 2 2 2 2 2 2 2 2 2 2 2 2 2 2 2 2 2 2 2 2 2 2 2
left_child=-1 2 3 4 5 6 7 -2 9 10 11 12 24 -14 15 21 -17 18 -7 -19 25 -6 23 -10 -3 -16 -5 -28 29 -24
right_child=1 8 -4 26 14 17 -8 -9 22 -11 -12 -13 13 -15 20 16 -18 19 -20 -21 -22 -23 28 -25 -26 -27 27 -29 -30 -31
leaf_value=-0.069627747954129501 0.35772624841085238 0.0046254616125593591 -0.069647733714424287 -0.070772962191298847 -0.070314454534029666 0.011760984998107899 -0.069681760267614953 -0.018974607935624006 0.049682960207490051 -0.069615569719765236 -0.069764575043138044 0.23011839053567004 0.14582445503794592 -0.069667409469132038 -0.070853152030231709 0.2527117649433101 0.048413060868857917 0.19226591044982003 0.44059151192358925 -0.069892460412288721 0.042833479199055724 0.068161573717747406 -0.070256613168288212 -0.07047018358049556 -0.069929352187957414 -0.070098053856749498 -0.069678216952605121 -0.070459281483628719 -0.069619108465950236 -0.069576461210261065
leaf_weight=62.544330760836601 14.900006495416168 1.3394418805837691 11.055477440357206 2.9265537075698367 3.7995137386024025 4.8776277936995012 2.6664817854762068 1.9301778674125678 2.5043675228953388 8.3144164755940455 5.097271066159009 2.6647058092057696 6.4825258478522283 2.4673396423459053 2.5323332697153074 3.0924441441893604 15.130243938416241 1.9080746322870252 1.7592683061957357 5.0025429576635361 2.6472504772245884 1.4418540708720682 4.8828098587691784 4.527884341776371 4.8558255769312382 3.5290002301335335 1.9154376126825807 2.3769227676093578 13.576356157660484 5.6496349014341831
leaf_count=1025 156 20 180 38 55 70 43 25 37 137 81 39 94 40 33 42 210 30 21 76 37 20 68 60 74 53 31 33 223 94
internal_value=-0.00192374 0.0271088 0.068403 0.089473 0.107167 0.180286 0.261978 0.314524 -0.0281761 0.00380585 0.0304551 0.0591384 0.0290554 0.0864167 0.0320679 0.0573267 0.0830832 0.0627201 0.125433 0.00249148 -0.0359885 -0.0322209 -0.0602408 -0.0276805 -0.0538103 -0.0704135 -0.0703792 -0.0701107 -0.0697382 -0.0698918
internal_weight=208.398 145.854 83.4912 72.4357 65.2168 33.0442 19.4967 16.8302 62.3626 31.2215 22.9071 17.8098 15.1451 8.94987 32.1726 23.4641 18.2227 13.5475 6.6369 6.91062 8.70858 5.24137 31.1411 7.03225 6.19527 6.06133 7.21891 4.29236 24.1088 10.5324
internal_count=3145 2120 1153 973 871 421 224 181 967 485 348 267 228 134 450 327 252 197 91 106 123 75 482 97 94 86 102 64 385 162
is_linear=0
shrinkage=0.1


Tree=4
num_leaves=31
num_cat=0
split_feature=7 3 21 12 13 2 15 19 22 19 9 21 21 14 10 22 21 22 19 5 24 9 21 24 22 19 24 21 22 8
split_gain=236.796 138.621 135.445 107.004 128.232 91.1453 73.5823 41.8482 34.2946 41.8997 39.3359 28.3475 31.0798 14.1061 12.4818 10.7639 9.67023 8.97083 14.4114 8.01385 7.07541 5.35371 1.27324 1.02295 0.86726 0.615715 0.280649 0.264575 0.121321 0.0414421
threshold=1.0000000180025095e-35 1.0000000180025095e-35 103.05000000000001 1.0000000180025095e-35 1.0000000180025095e-35 1.0000000180025095e-35 1.0000000180025095e-35 119.95000000000002 138.55000000000004 119.95000000000002 1.0000000180025095e-35 103.05000000000001 99.550000000000011 1.0000000180025095e-35 1.0000000180025095e-35 120.85000000000001 99.850000000000009 139.05000000000004 120.35000000000001 1.0000000180025095e-35 29.500000000000004 1.0000000180025095e-35 99.450000000000017 34.500000000000007 143.85000000000005 76.850000000000009 7.5000000000000009 100.95000000000002 106.65000000000002 1.0000000180025095e-35
decision_type=2 2 2 2 2 2 2 2 2 2 2 2 2 2 2 2 2 2 2 2 2 2 2 2 2 2 2 2 2 2
left_child=1 2 3 4 5 6 7 -1 9 10 11 12 15 -8 -6 -3 24 18 -7 21 -14 -5 28 26 29 -21 -16 -10 -12 -2
right_child=16 8 -4 19 14 17 13 -9 27 -11 22 -13 20 -15 23 -17 -18 -19 -20 25 -22 -23 -24 -25 -26 -27 -28 -29 -30 -31
leaf_value=-0.10019634670278017 -0.12323344216321755 -0.0042785572894298999 0.11828966819890818 -0.023618428162718988 0.0011113434424779604 -0.0064530056820410178 -0.02525655864286469 0.11976561086935884 0.12002530555714236 0.11847222010537076 0.10606224715928834 0.1181511921721838 -0.093967262081872976 0.10878131670408631 0.095319782287342614 0.077676068916987417 -0.0014958248846792697 0.12230575853663113 0.1183643665186369 0.094111745911828582 -0.031187420183238331 0.080399574319906533 0.072127274681169903 0.081516700663636338 -0.085734542333926883 0.12253509256389779 0.11676527057529061 0.10158537146754998 0.12040515850093772 -0.11913977250155461
leaf_weight=332.09034302830696 31.622179001569748 30.835036247968674 73.043678164482117 7.8357259929180154 14.572760611772535 30.470247209072113 12.346129804849623 8.8806113302707654 88.100791603326797 65.320831000804901 7.3883611261844626 18.809066474437714 30.178765743970871 21.566880822181702 7.4276375174522391 33.368462175130844 7.4340714216232291 14.4543319940567 13.282713562250136 9.6910019516944867 44.309743344783783 13.426892638206482 7.4375225007534018 13.793934136629103 7.7673836052417746 35.685501664876938 34.198809176683426 8.5346653759479505 29.224476128816605 113.45507001876831
leaf_count=894 85 83 198 21 39 82 33 24 238 177 20 51 81 58 20 90 20 39 36 26 119 36 20 37 21 96 92 23 79 307
internal_value=1.79287e-05 0.0179989 -0.00991274 -0.0263494 -0.0421224 -0.0624186 -0.0804953 -0.0944674 0.0673534 0.0488704 0.0263131 0.00294977 -0.0126736 0.0599844 0.0834634 0.0383157 -0.112872 0.0540039 0.0314396 0.0927265 -0.0566225 0.0420667 0.109848 0.105118 -0.118289 0.116465 0.112939 0.118397 0.117511 -0.120032
internal_weight=1166.55 1006.27 642.767 569.724 503.084 433.091 374.884 340.971 363.508 266.872 201.551 157.501 138.692 33.913 69.9931 64.2035 160.279 58.2073 43.753 66.6391 74.4885 21.2626 44.0504 55.4204 152.845 45.3765 41.6264 96.6355 36.6128 145.077
internal_count=3145 2712 1731 1533 1354 1166 1009 918 981 720 543 424 373 91 188 173 433 157 118 179 200 57 119 149 413 122 112 261 99 392
is_linear=0
shrinkage=0.1


Tree=5
num_leaves=31
num_cat=0
split_feature=8 18 10 4 21 19 1 3 12 21 14 26 13 21 0 5 20 6 19 21 21 16 17 4 24 21 21 9 20 7
split_gain=201.945 122.425 83.4079 131.205 81.514 41.0652 38.0843 43.1905 47.8213 36.1837 33.5824 40.2183 29.3483 20.5039 19.9993 17.2514 10.7105 9.85831 7.5319 7.01368 5.2796 4.98998 7.82711 4.10421 4.02753 4.13667 3.48783 3.48176 3.41789 3.07667
threshold=1.0000000180025095e-35 1.0000000180025095e-35 1.0000000180025095e-35 1.0000000180025095e-35 103.05000000000001 119.95000000000002 1.0000000180025095e-35 1.0000000180025095e-35 1.0000000180025095e-35 103.05000000000001 1.0000000180025095e-35 1.0000000180025095e-35 1.0000000180025095e-35 103.05000000000001 1.0000000180025095e-35 1.0000000180025095e-35 94.950000000000017 1.0000000180025095e-35 114.95000000000002 102.95000000000002 99.050000000000011 1.0000000180025095e-35 1.0000000180025095e-35 1.0000000180025095e-35 24.500000000000004 101.15000000000002 102.25000000000001 1.0000000180025095e-35 96.450000000000017 1.0000000180025095e-35
decision_type=2 2 2 2 2 2 2 2 2 2 2 2 2 2 2 2 2 2 2 2 2 2 2 2 2 2 2 2 2 2
left_child=1 2 5 12 18 6 7 8 13 10 11 -8 19 -1 23 17 -3 28 20 24 -5 22 -18 -9 25 -4 -16 -10 -2 -17
right_child=15 16 3 4 -6 -7 9 14 27 -11 -12 -13 -14 -15 26 29 21 -19 -20 -21 -22 -23 -24 -25 -26 -27 -28 -29 -30 -31
leaf_value=0.013810010247616085 -0.067615160420641626 -0.011669109359299549 -0.069163914564962667 0.073754268621413557 -0.10981002369004347 -0.11000184871079935 0.063172465541518938 -0.07212586621226498 -0.051579572136186205 -0.10995130112871204 -0.090304512287976951 -0.11661222576714506 -0.10967716144821525 -0.10983825086986343 0.059934478092172117 0.087311310870656786 0.013035602508142358 0.096130223967128461 0.014176648123160412 -0.09662926245842185 0.12824877849826599 0.12962441524465801 0.13066229093000431 -0.11134475573756693 0.040676822579299193 0.019794916602776592 -0.031991142397606129 -0.10772071876235999 0.027176373544285093 0.128925551602631
leaf_weight=156.10845282673836 7.3990044295787811 7.6668180823326102 9.6206759214401263 21.694318115711212 18.962645769119263 85.585057288408279 110.1200287938118 34.506343871355057 13.90722945332527 23.98637068271637 22.347703129053116 14.027862966060637 58.376370429992676 14.671348571777342 8.1564106941223162 21.359778702259064 11.036803841590881 14.596312642097473 7.3564817309379569 7.1736716330051413 98.496139198541641 51.675729244947433 11.605679154396057 117.69516250491142 21.522945433855057 11.446561545133589 8.355805039405821 53.708688706159592 7.8283370733261108 105.60263308882713
leaf_count=421 20 21 26 58 53 239 296 95 38 67 61 38 161 41 22 57 30 39 20 20 263 138 31 327 58 31 23 148 21 282
internal_value=0.000328542 -0.0162185 -0.0266768 0.0219713 0.08364 -0.045357 -0.0357782 -0.052395 -0.0249941 0.00390248 0.0225443 0.042858 -0.0615782 0.00318764 -0.0911129 0.105848 0.100863 0.0374068 0.112401 -0.00515477 0.118413 0.112472 0.0733266 -0.102453 0.0102527 -0.0208295 0.0134166 -0.0961736 -0.0188831 0.121924
internal_weight=1156.6 999.811 917.826 254.65 146.51 663.176 577.591 407.109 238.396 170.482 146.496 124.148 108.14 170.78 168.714 156.786 81.985 29.8237 127.547 49.7639 120.19 74.3182 22.6425 152.202 42.5902 21.0672 16.5122 67.6159 15.2273 126.962
internal_count=3145 2726 2506 690 394 1816 1577 1115 648 462 395 334 296 462 467 419 220 80 341 135 321 199 61 422 115 57 45 186 41 339
is_linear=0
shrinkage=0.1


Tree=6
num_leaves=31
num_cat=0
split_feature=20 21 16 11 5 7 9 6 6 26 2 13 22 9 15 2 10 5 24 10 23 21 23 23 28 20 20 3 14 12
split_gain=36.3551 26.3977 19.8576 18.2206 24.8332 23.7722 19.2019 19.0641 18.3428 16.0168 16.216 15.996 7.77385 7.71682 5.17377 8.26288 8.64029 12.9641 9.44655 2.42358 3.38225 2.2452 2.23553 1.15679 0.855268 0.79195 0.64879 0.00025444 0.000226648 0.000208148
threshold=95.15000000000002 100.45000000000002 1.0000000180025095e-35 1.0000000180025095e-35 1.0000000180025095e-35 1.0000000180025095e-35 1.0000000180025095e-35 1.0000000180025095e-35 1.0000000180025095e-35 1.0000000180025095e-35 1.0000000180025095e-35 1.0000000180025095e-35 121.75000000000001 1.0000000180025095e-35 1.0000000180025095e-35 1.0000000180025095e-35 1.0000000180025095e-35 1.0000000180025095e-35 18.500000000000004 1.0000000180025095e-35 85.15000000000002 101.35000000000001 87.750000000000014 63.350000000000001 1.0000000180025095e-35 98.450000000000017 99.65000000000002 1.0000000180025095e-35 1.0000000180025095e-35 1.0000000180025095e-35
decision_type=2 2 2 2 2 2 2 2 2 2 2 2 2 2 2 2 2 2 2 2 2 2 2 2 2 2 2 2 2 2
left_child=-1 2 3 4 9 6 7 -6 12 10 11 -2 -7 14 15 16 17 18 -3 20 23 -18 -22 -15 -23 -11 29 -5 -16 -25
right_child=1 13 -4 27 5 8 -8 -9 -10 25 -12 -13 -14 19 28 -17 21 -19 -20 -21 22 24 -24 26 -26 -27 -28 -29 -30 -31
leaf_value=-0.069375846058343904 0.22406323092041158 0.060416881639607026 -0.069410032406855351 -0.070964714181479691 0.54288152101280396 0.21892311949291782 -0.070139983498195682 0.15580202097718326 -0.070569253588030095 -0.071701341876007338 -0.071170367586541355 -0.069602181284650996 -0.021979185683453695 0.019934640452409232 -0.070796456629669463 -0.069692975399368057 0.095779058659465122 -0.069634892586177222 0.31661551163645651 -0.069578157799772583 0.13934844782006059 0.0095789700785326361 -0.015337927025699406 -0.070316940799444019 -0.070147604408235337 0.0145513063133561 0.0050643496341642525 -0.06978170785391806 -0.06936025972448609 -0.069322332029260442
leaf_weight=57.579191975295544 25.570160616189249 2.2912336103618198 10.176570154726504 3.4497019089758387 1.7903223149478451 3.7902501486241844 2.3088901601731777 4.3980488553643227 17.520610764622688 1.9897300861775864 2.3448249101638785 1.9999079816043366 2.0717102810740471 2.2286669276654711 1.5984886251389969 4.9503396302461615 1.7976378239691246 2.0375024303793907 3.8701668865978718 24.828286115080118 1.9081786163151258 2.5069460012018681 1.830544590950012 4.8803383670747262 2.9044007025659084 2.2893179133534431 1.3345113545656193 3.8439018689095974 3.5151571743190289 3.698802761733532
leaf_count=1025 244 31 179 45 20 48 35 50 247 23 29 34 31 36 20 81 22 34 48 424 28 36 28 69 42 22 21 63 63 67
internal_value=-0.00184642 0.0241231 0.061495 0.0796525 0.0962096 0.0327177 0.175964 0.267786 -0.0193382 0.155405 0.181289 0.202761 0.133784 -0.0230534 0.0201152 0.0427027 0.0788139 0.149032 0.221343 -0.0500641 -0.019556 -0.00104685 0.0636113 -0.0451639 -0.0332122 -0.0255556 -0.0597985 -0.0703412 -0.0698092 -0.0698881
internal_weight=207.304 149.725 83.5439 73.3674 66.0738 31.8798 8.49726 6.18837 23.3826 34.1939 29.9149 27.5701 5.86196 66.1812 25.4719 20.3582 15.4079 8.1989 6.1614 40.7093 15.881 7.20898 3.73872 12.1423 5.41135 4.27905 9.91365 7.2936 5.11365 8.57914
internal_count=3145 2120 1070 891 783 431 105 70 326 352 307 278 79 1050 377 294 213 113 79 673 249 100 56 193 78 45 157 108 83 136
is_linear=0
shrinkage=0.1


Tree=7
num_leaves=31
num_cat=0
split_feature=7 20 4 0 2 1 19 26 19 20 27 24 12 13 13 12 14 19 19 0 22 16 10 20 19 2 1 0 20 22
split_gain=189.365 114.949 104.858 81.5158 48.1696 28.5067 39.3099 24.6379 24.1534 22.8937 26.7369 20.4868 14.9641 15.4033 14.6262 24.0143 21.1601 24.8906 8.79225 8.75718 8.51278 8.42938 16.1871 8.36245 4.04934 5.59208 3.54779 3.14674 2.93323 1.86333
threshold=1.0000000180025095e-35 94.950000000000017 1.0000000180025095e-35 1.0000000180025095e-35 1.0000000180025095e-35 1.0000000180025095e-35 119.95000000000002 1.0000000180025095e-35 119.95000000000002 89.950000000000017 1.0000000180025095e-35 59.500000000000007 1.0000000180025095e-35 1.0000000180025095e-35 1.0000000180025095e-35 1.0000000180025095e-35 1.0000000180025095e-35 119.95000000000002 98.65000000000002 1.0000000180025095e-35 119.45000000000002 1.0000000180025095e-35 1.0000000180025095e-35 96.250000000000014 119.75000000000001 1.0000000180025095e-35 1.0000000180025095e-35 1.0000000180025095e-35 93.450000000000017 129.05000000000004
decision_type=2 2 2 2 2 2 2 2 2 2 2 2 2 2 2 2 2 2 2 2 2 2 2 2 2 2 2 2 2 2
left_child=1 5 3 12 8 20 7 9 21 -7 11 -11 13 18 15 16 17 -5 26 -2 24 22 23 -4 25 28 -3 -22 -1 -29
right_child=19 2 4 14 -6 6 -8 -9 -10 10 -12 -13 -14 -15 -16 -17 -18 -19 -20 -21 27 -23 -24 -25 -26 -27 -28 29 -30 -31
leaf_value=0.094597139110737902 -0.10798653210914844 -0.10230817281712715 0.048634426988535921 -0.018826075034491324 0.10594593939614655 0.12133240677338825 0.10805233942253263 0.12256905913472649 0.11093539031929522 -0.076528339346858459 0.12145665763194852 0.098910214133731481 0.058312956174630282 0.045100301674792787 0.10213911166858092 0.10119096089571211 0.099089493856222746 0.10934308172790511 -0.00032243406200060118 0.0063798562218408544 0.10627585416049123 -0.10597048495948269 -0.082129719150369984 -0.039329622640676409 0.10868666209924005 -0.0050607270058529363 -0.0403063256422811 0.092227045321941259 0.031938101741702772 0.025416542246072839
leaf_weight=17.266000539064411 147.72071424126625 55.484904408454895 13.288933992385862 91.04517462849617 17.489647597074509 9.9865576028823835 45.005009770393372 13.555575579404829 7.5425590276718131 66.495847463607788 9.2405145168304426 7.3965603411197653 11.736215353012083 11.7572625875473 57.69407656788826 54.081655412912369 28.628074824810028 18.176960676908493 12.413398683071135 7.013124704360961 122.64620143175125 53.409371912479401 131.26740252971649 57.876272261142731 11.374067008495329 16.32502818107605 11.070203036069868 8.66234338283539 13.169378399848936 8.0573514699935895
leaf_count=48 414 153 37 247 48 27 127 37 21 181 25 20 32 32 160 150 79 51 34 19 342 149 365 159 32 44 30 24 36 22
internal_value=1.94317e-05 0.0162188 -0.00919095 0.0271623 -0.0547613 0.0622793 0.0296755 -0.00339079 -0.0654328 -0.021727 -0.0389124 -0.0589671 -0.047941 -0.0616859 0.0579893 0.044718 0.0225625 0.00250409 -0.0775849 -0.102803 0.087319 -0.0706324 -0.0613088 -0.0229038 0.055174 0.0421575 -0.0919953 0.100728 0.0674846 0.0600305
internal_weight=1136.88 982.143 632.962 352.088 280.874 349.18 151.68 106.675 263.385 93.1195 83.1329 73.8924 102.462 90.7258 249.626 191.932 137.85 109.222 78.9685 154.734 197.5 255.842 202.433 71.1652 58.1345 46.7604 66.5551 139.366 30.4354 16.7197
internal_count=3145 2712 1747 968 779 965 417 290 731 253 226 201 281 249 687 527 377 298 217 433 548 710 561 196 160 128 183 388 84 46
is_linear=0
shrinkage=0.1


Tree=8
num_leaves=31
num_cat=0
split_feature=7 16 21 19 21 4 20 20 1 27 5 20 17 8 13 19 8 6 8 4 20 21 9 20 20 19 8 17 20 18
split_gain=159.666 104.331 66.5626 63.2351 57.6803 128.195 46.4423 43.8472 38.0345 20.8205 17.3877 16.8717 16.4191 8.44245 8.25124 7.46609 7.26164 4.19162 15.2945 4.06279 2.23812 2.20635 2.12178 1.50952 1.3421 1.28473 0.545747 0.450149 0.246689 0.0365452
threshold=1.0000000180025095e-35 1.0000000180025095e-35 103.05000000000001 119.95000000000002 100.45000000000002 1.0000000180025095e-35 95.850000000000009 96.15000000000002 1.0000000180025095e-35 1.0000000180025095e-35 1.0000000180025095e-35 89.950000000000017 1.0000000180025095e-35 1.0000000180025095e-35 1.0000000180025095e-35 101.25000000000001 1.0000000180025095e-35 1.0000000180025095e-35 1.0000000180025095e-35 1.0000000180025095e-35 95.750000000000014 98.850000000000009 1.0000000180025095e-35 95.550000000000011 97.350000000000009 86.750000000000014 1.0000000180025095e-35 1.0000000180025095e-35 97.750000000000014 1.0000000180025095e-35
decision_type=2 2 2 2 2 2 2 2 2 2 2 2 2 2 2 2 2 2 2 2 2 2 2 2 2 2 2 2 2 2
left_child=1 2 3 4 6 7 8 9 19 -6 16 -10 13 -8 -9 20 21 18 -12 -1 -3 -2 25 -24 -18 -7 -19 28 -22 -29
right_child=10 15 -4 -5 5 22 12 14 11 -11 17 -13 -14 -15 -16 -17 24 26 -20 -21 27 -23 23 -25 -26 -27 -28 29 -30 -31
leaf_value=-0.061325217680655408 -0.062492065894669491 0.056822668325508821 -0.10188666417399805 -0.10223801916403703 0.045364751077423368 0.10555294013464984 -0.014807505241541223 -0.040989532096600584 -0.11206064758463395 -0.11363931014022113 -0.04762829823623721 0.058648581551685786 0.10749301574691256 0.051541238344999379 -0.095723027623653215 0.0014483058062672038 0.043355117149871593 0.13558275962644808 0.11597287500006676 -0.097485169700264426 0.085334655965520353 0.013820717350263568 0.071351834460006355 0.11735132895494903 0.10116888772541946 0.060902152146743598 0.1161112477692357 0.12372161755810257 0.10989755755161246 0.11679184717730713
leaf_weight=42.19872173666954 7.430291950702669 7.9738889038562766 99.020231455564499 75.116978585720062 91.13212987780571 11.858364582061769 122.45476973056793 104.58861413598061 7.2090978920459738 9.053323417901991 7.447414129972457 29.401519298553467 14.411710590124128 22.739234685897827 37.389503508806229 7.4617880284786215 7.8569628894329098 17.610522240400314 24.554828405380249 117.84229099750519 7.3444811105728176 7.7300436496734619 7.7740374505519858 86.647268325090408 8.212297320365904 14.113385647535322 78.817652493715286 9.6782984137535077 9.2236885130405408 35.612749099731445
leaf_count=119 20 22 292 221 246 32 336 289 20 25 20 79 39 61 107 21 21 47 67 342 20 21 21 234 22 38 215 26 25 97
internal_value=0.000319212 -0.0149298 -0.0245776 -0.0149355 -0.00581224 0.0222679 -0.0343889 -0.019659 -0.0669164 0.0309962 0.0929867 0.0250338 0.0056885 -0.00441644 -0.0554034 0.0965264 0.026064 0.10926 0.0779004 -0.0879507 0.106686 -0.0235812 0.106602 0.113564 0.0729012 0.0812891 0.119667 0.113113 0.0990091 0.118273
internal_weight=1129.91 970.246 892.951 793.931 718.814 362.557 356.257 242.164 196.652 100.185 159.66 36.6106 159.606 145.194 141.978 77.2949 31.2296 128.43 32.0022 160.041 69.8331 15.1603 120.393 94.4213 16.0693 25.9718 96.4282 61.8592 16.5682 45.291
internal_count=3145 2712 2501 2209 1988 992 996 667 560 271 433 99 436 397 396 211 84 349 87 461 190 41 325 255 43 70 262 168 45 123
is_linear=0
shrinkage=0.1


Tree=9
num_leaves=31
num_cat=0
split_feature=3 21 17 8 5 2 9 14 26 6 7 6 10 5 20 14 9 21 20 28 21 9 24 24 24 9 21 16 20 20
split_gain=32.6307 22.1439 16.9356 14.7465 17.7039 17.2382 22.7483 18.4715 18.4883 13.8633 7.13587 16.1717 5.98234 5.74232 5.9195 8.15936 11.8496 5.46988 5.61231 2.14351 1.25738 0.958975 1.29536 3.61086 0.659846 0.655606 0.627964 0.00199308 0.000578752 0.000495432
threshold=1.0000000180025095e-35 100.85000000000001 1.0000000180025095e-35 1.0000000180025095e-35 1.0000000180025095e-35 1.0000000180025095e-35 1.0000000180025095e-35 1.0000000180025095e-35 1.0000000180025095e-35 1.0000000180025095e-35 1.0000000180025095e-35 1.0000000180025095e-35 1.0000000180025095e-35 1.0000000180025095e-35 96.250000000000014 1.0000000180025095e-35 1.0000000180025095e-35 100.15000000000002 99.450000000000017 1.0000000180025095e-35 102.75000000000001 1.0000000180025095e-35 25.500000000000004 43.500000000000007 48.500000000000007 1.0000000180025095e-35 99.250000000000014 1.0000000180025095e-35 95.450000000000017 95.550000000000011
decision_type=2 2 2 2 2 2 2 2 2 2 2 2 2 2 2 2 2 2 2 2 2 2 2 2 2 2 2 2 2 2
left_child=1 2 3 5 9 6 7 8 -1 -5 11 -6 13 14 25 16 20 18 -8 -18 -16 22 -14 -24 -19 -3 27 -4 -2 -7
right_child=28 12 26 4 10 29 17 -9 -10 -11 -12 -13 21 -15 15 -17 19 24 -20 -21 -22 -23 23 -25 -26 -27 -28 -29 -30 -31
leaf_value=0.24259965880361714 -0.069141144991689094 -0.069292204199448856 -0.072074541367283737 0.31719707997712659 0.29941110656421105 -0.069181616132742069 0.095418462722933875 -0.072653247647637684 0.0047392905098621665 0.040919871094230759 -0.06953362178839799 -0.071111223155448766 -0.07015545894453383 -0.069481295310429708 0.23771021407307391 -0.069552421380222038 -0.041958860671660665 -0.070863711971280871 -0.072466601652543775 0.066895464540761729 0.13838654086311403 -0.069286053763395111 0.13725200007918043 -0.07007909239963088 0.014840719110801799 0.012518531853916907 0.0016854342766685305 -0.069156631119709669 -0.070001237619746248 -0.071431587590180812
leaf_weight=20.813884854316719 43.31881120800972 5.0218462236225667 3.6954249888658506 2.8006865195930031 1.876851145178082 4.1012473367154589 12.472703758627178 2.6481610089540473 3.8763691820204249 5.1671446263790131 16.0496188364923 3.1633227057754993 3.4001927822828319 7.802836760878562 3.8736227639019507 3.7321501225233069 3.587148018181324 3.9456492662429801 2.369491931051015 3.6493085287511349 1.89960316196084 21.622683480381966 1.4460687786340716 2.0042480528354645 1.1631529554724691 1.2169052585959432 1.3806221075355996 6.3863914385437965 9.5478907115757448 1.2853786088526247
leaf_count=178 840 94 45 21 17 79 140 27 39 36 276 37 50 140 40 66 57 58 27 55 20 404 21 30 16 21 21 123 151 16
internal_value=-0.00159871 0.0218771 0.0522671 0.068231 0.0110409 0.0997786 0.119086 0.178336 0.205256 0.138031 -0.0369366 0.0668632 -0.0259187 0.0046394 0.0298064 0.0607884 0.0981799 0.0378966 0.0686163 0.0129358 0.205029 -0.0589562 -0.0263516 0.0168158 -0.0513508 -0.0533345 -0.0615646 -0.0702262 -0.0692965 -0.0697185
internal_weight=205.319 152.453 93.1961 81.7337 29.0576 52.676 47.2894 27.3384 24.6903 7.96783 21.0898 5.04017 59.2566 30.7834 22.9806 16.7418 13.0097 19.951 14.8422 7.23646 5.77323 28.4732 6.85051 3.45032 5.1088 6.23875 11.4624 10.0818 52.8667 5.38663
internal_count=3145 2154 1156 967 387 580 485 244 217 57 330 54 998 493 353 238 172 241 167 112 60 505 101 51 74 115 189 168 991 95
is_linear=0
shrinkage=0.1


Tree=10
num_leaves=31
num_cat=0
split_feature=11 21 19 12 13 20 15 26 20 14 9 9 22 23 20 21 19 24 24 19 24 19 21 21 20 20 20 4 4 19
split_gain=159.533 163.101 128.045 87.6193 99.9544 65.0129 49.5568 31.3928 28.7367 14.8349 12.0322 7.29446 5.23547 4.6987 4.56083 4.07222 2.40856 1.93601 1.01705 0.91508 0.910909 0.794798 0.512072 0.174587 0.265963 0.0416642 0.0434703 0.0291124 0.0160958 0.0108051
threshold=1.0000000180025095e-35 103.05000000000001 119.95000000000002 1.0000000180025095e-35 1.0000000180025095e-35 94.950000000000017 1.0000000180025095e-35 1.0000000180025095e-35 89.950000000000017 1.0000000180025095e-35 1.0000000180025095e-35 1.0000000180025095e-35 115.25000000000001 97.750000000000014 96.850000000000009 101.05000000000001 90.15000000000002 51.500000000000007 9.5000000000000018 79.350000000000009 34.500000000000007 99.350000000000009 99.450000000000017 101.55000000000001 97.950000000000017 95.050000000000011 94.65000000000002 1.0000000180025095e-35 1.0000000180025095e-35 119.95000000000002
decision_type=2 2 2 2 2 2 2 2 2 2 2 2 2 2 2 2 2 2 2 2 2 2 2 2 2 2 2 2 2 2
left_child=1 2 3 4 5 7 13 8 -1 -8 15 12 -6 -7 19 -5 -16 23 -13 -2 -20 -9 25 -12 -25 26 28 29 -21 -3
right_child=14 27 -4 10 11 6 9 21 -10 -11 17 18 -14 -15 16 -17 -18 -19 20 22 -22 -23 -24 24 -26 -27 -28 -29 -30 -31
leaf_value=0.10684392665677045 0.072669902238821041 0.1033491863781193 0.10132521779001838 -0.051346891721070077 0.074212046139321683 -0.09206789233317321 -0.037176751810208519 0.083881273951540908 -0.04366773590186205 0.094835414080549629 0.1092124307726879 0.050328881001265972 -0.034713740666675652 -0.032364563054401135 0.024854596813371155 0.048642128128439072 0.091804218407781732 0.049872948734795745 0.10071661596097033 0.1048762680428961 0.069709557737167138 0.12172280498574702 0.077413906787992398 0.10577084427862105 0.080743114363149349 0.10655373936058916 0.094033317733557664 0.10649933733940833 0.10146034164221199 0.10050197786496447
leaf_weight=14.468687027692793 12.921230018138884 56.842873752117157 67.711136907339096 8.7622154355049151 7.4240239560604122 447.34310230612755 15.720338284969328 10.316173881292345 102.90729480981827 18.565731823444366 22.37841808795929 7.8077488243579856 10.878287881612776 13.58219653367996 14.350502938032152 7.6111657917499533 8.5900938212871534 8.1475876271724683 26.623336255550385 16.924446612596512 14.708900421857832 12.014297515153883 8.8604651689529401 10.81298488378525 6.9912811517715445 19.566756248474121 7.2216905355453482 27.323253512382507 74.580369740724564 17.411545693874359
leaf_count=40 37 166 201 24 21 1285 43 29 283 52 63 22 30 39 39 21 24 23 76 49 41 33 25 31 20 56 21 78 221 52
internal_value=-4.18745e-05 -0.0159365 -0.0304952 -0.0421314 -0.0523895 -0.0646845 -0.0816808 -0.00443852 -0.0251145 0.0343072 0.069221 0.0633585 0.00947017 -0.0903086 0.0912557 -0.004867 0.0499238 0.0943206 0.0834294 0.0980248 0.0896821 0.104241 0.100601 0.103333 0.0959431 0.102338 0.101503 0.103708 0.102092 0.102682
internal_weight=1099.37 936.353 834.775 767.064 702.36 634.918 495.211 139.706 117.376 34.2861 64.7037 67.4423 18.3023 460.925 163.016 16.3734 22.9406 48.3303 49.14 140.075 41.3322 22.3305 127.154 40.1827 17.8043 118.293 98.7265 101.578 91.5048 74.2544
internal_count=3145 2673 2377 2176 1994 1804 1419 385 323 95 182 190 51 1324 472 45 63 137 139 409 117 62 372 114 51 347 291 296 270 218
is_linear=0
shrinkage=0.1


Tree=11
num_leaves=31
num_cat=0
split_feature=11 19 8 4 3 9 20 15 27 20 12 13 10 3 20 7 16 1 28 10 28 23 24 10 20 22 23 24 19 20
split_gain=129.812 110.256 75.1415 98.7212 50.7288 50.4622 19.8327 23.3028 18.0128 11.9244 8.69226 18.5729 8.03902 6.02883 5.35491 5.05765 4.84145 4.75659 3.90889 3.11824 2.28556 1.46556 2.53923 0.906396 0.588304 0.701088 0.441745 0.42151 0.246919 0.217198
threshold=1.0000000180025095e-35 119.95000000000002 1.0000000180025095e-35 1.0000000180025095e-35 1.0000000180025095e-35 1.0000000180025095e-35 89.950000000000017 1.0000000180025095e-35 1.0000000180025095e-35 94.15000000000002 1.0000000180025095e-35 1.0000000180025095e-35 1.0000000180025095e-35 1.0000000180025095e-35 95.850000000000009 1.0000000180025095e-35 1.0000000180025095e-35 1.0000000180025095e-35 1.0000000180025095e-35 1.0000000180025095e-35 1.0000000180025095e-35 87.15000000000002 16.500000000000004 1.0000000180025095e-35 96.350000000000009 112.15000000000002 87.550000000000011 51.500000000000007 88.450000000000017 91.15000000000002
decision_type=2 2 2 2 2 2 2 2 2 2 2 2 2 2 2 2 2 2 2 2 2 2 2 2 2 2 2 2 2 2
left_child=1 2 3 5 9 6 -1 8 -8 -5 11 12 -7 14 26 21 19 -9 -16 -11 -6 22 -4 -13 25 -17 -2 -12 -18 -15
right_child=13 -3 15 4 20 10 7 17 -10 16 27 23 -14 29 18 24 28 -19 -20 -21 -22 -23 -24 -25 -26 -27 -28 -29 -30 -31
leaf_value=-0.10028161891900987 -0.069077024335292947 -0.095860272749557329 0.019897153097138021 -0.053976100915659589 -0.041288604151224727 -0.049000562020112978 0.035400021367894316 -0.0068155420445952623 -0.053056906774588554 0.049515628926856098 -0.10024119988646983 -0.061147920546065763 0.024532209153730628 -0.088454009309944209 0.034644841268612191 0.059982150065375009 0.10809105470253229 -0.084947241676607721 -0.055390050761693267 0.078505645538825913 -0.10302108469875021 0.015239900942714352 0.092656548613334097 -0.097689180342115947 0.10392582731842358 0.10017738652162551 -0.10141760426327573 -0.0748093340078963 0.087996037430910917 -0.097909149362398987
leaf_weight=15.959203839302061 6.9553153812885311 82.774471461772919 7.3985297977924409 7.063019484281539 10.415954440832138 27.174025923013687 211.72947642207146 11.363007307052611 25.82896500825882 51.634444177150726 42.612658202648163 8.1318975090980512 32.829447001218796 34.07333704829216 9.1891089379787445 7.1753235757350948 43.546060502529144 24.792832046747208 10.146477490663528 131.84148725867271 14.137994050979614 7.3668088614940634 13.638120412826536 41.079174041748047 95.681481778621674 10.978958070278166 10.753453284502028 7.6937155723571768 7.1136245131492606 84.659622460603714
leaf_count=46 20 261 20 20 30 75 582 32 74 142 128 23 89 106 25 20 123 72 28 368 42 20 37 124 271 31 32 23 20 261
internal_value=0.00034158 0.0143536 0.0249965 0.0117904 0.0601015 -0.0167915 0.0080811 0.0143993 0.0257824 0.0740414 -0.0619574 -0.0461148 -0.00876889 -0.0842072 -0.0489872 0.0913753 0.0779032 -0.0603921 -0.0126016 0.0703472 -0.0768337 0.0536252 0.0670673 -0.0916509 0.100794 0.0842906 -0.0887155 -0.0963517 0.105269 -0.0951958
internal_weight=1095.74 939.961 857.186 714.947 265.753 449.194 289.673 273.714 237.558 241.199 159.521 109.215 60.0035 155.777 37.0444 142.239 234.136 36.1558 19.3356 183.476 24.5539 28.4035 21.0367 49.2111 113.836 18.1543 17.7088 50.3064 50.6597 118.733
internal_count=3145 2673 2412 2013 745 1268 806 760 656 673 462 311 164 472 105 399 653 104 53 510 72 77 57 147 322 51 52 151 143 367
is_linear=0
shrinkage=0.1


Tree=12
num_leaves=31
num_cat=0
split_feature=3 21 17 27 5 2 6 7 9 4 19 10 23 21 22 21 21 19 20 1 12 9 4 22 20 20 22 23 21 19
split_gain=29.621 18.142 13.9065 13.298 10.3108 13.7047 11.6726 15.2167 10.2192 9.09138 9.2281 5.58114 6.48519 5.78537 5.08431 4.33849 4.21785 2.53193 4.97034 4.55912 8.10275 0.98509 2.04463 3.94985 0.878995 1.52562 0.797841 0.625332 0.613931 0.476924
threshold=1.0000000180025095e-35 100.85000000000001 1.0000000180025095e-35 1.0000000180025095e-35 1.0000000180025095e-35 1.0000000180025095e-35 1.0000000180025095e-35 1.0000000180025095e-35 1.0000000180025095e-35 1.0000000180025095e-35 72.850000000000009 1.0000000180025095e-35 85.750000000000014 102.55000000000001 128.75000000000003 98.850000000000009 98.550000000000011 90.450000000000017 97.850000000000009 1.0000000180025095e-35 1.0000000180025095e-35 1.0000000180025095e-35 1.0000000180025095e-35 115.65000000000002 96.950000000000017 97.350000000000009 115.65000000000002 82.750000000000014 99.250000000000014 89.250000000000014
decision_type=2 2 2 2 2 2 2 2 2 2 2 2 2 2 2 2 2 2 2 2 2 2 2 2 2 2 2 2 2 2
left_child=1 2 3 4 5 9 8 26 16 10 -1 12 17 14 -14 -11 -6 27 24 20 -20 22 23 -13 -19 -26 -8 -3 -4 -5
right_child=-2 11 28 29 6 -7 7 -9 -10 15 -12 21 13 -15 -16 -17 -18 18 19 -21 -22 -23 -24 -25 25 -27 -28 -29 -30 -31
leaf_value=0.24285469526658232 -0.069083509768783399 -0.070253806909444633 -0.069962852562382175 -0.060689465340415021 0.21545936875702287 -0.069580888356186518 0.17636139960807901 -0.070536972863606759 -0.070022474464775983 0.10604995612623945 0.11671729960401703 -0.069972909191573798 -0.069659947117434548 0.21811486459429885 0.1869885993879587 -0.0062097756336797622 0.082918582796167484 -0.06915641583692228 0.1951496105749754 -0.070135110729091343 -0.069141816385027616 -0.069069772821172423 -0.069913715947210797 0.1759968121507719 0.07611286470755213 -0.070713012708916237 0.094656179791119871 0.0036609391495187314 0.0015089215214898941 0.0039799934123775213
leaf_weight=8.4213993921875971 48.565294295549393 7.7979094162583404 9.2947741039097291 8.1230688989162427 5.14640596881509 4.1006186120212069 2.3936913199722776 14.290061965584755 2.5920797660946837 7.8225070089101774 18.632398508489132 1.4090995416045218 2.3013456463813777 2.4133036322891712 1.1614442728459833 6.1485854685306549 4.5007933527231216 5.485155273228882 3.7473538629710665 1.8047589957714079 1.6801138669252393 19.81207973882556 3.9424348697066307 1.2164559587836263 1.3546751178801062 1.4817633964121339 2.3868556022644043 1.3414922617375848 1.3803320825099934 1.3266254328191269
leaf_count=56 991 125 168 90 45 77 22 228 42 80 147 23 40 31 17 82 54 109 45 29 34 404 61 17 19 24 24 20 21 20
internal_value=-0.00101469 0.02052 0.046921 0.0603005 0.074136 0.104729 0.0300431 -0.0188716 0.106259 0.122153 0.155982 -0.0242441 0.00483711 0.0992569 0.0164218 0.0566452 0.153624 -0.0176314 0.00691445 0.067552 0.113336 -0.0579435 -0.0243814 0.0439882 -0.0457852 -0.000589383 0.135567 -0.0594045 -0.0607213 -0.0516106
internal_weight=202.075 153.51 96.5602 85.8851 76.4354 45.1255 31.3099 19.0706 12.2393 41.0249 27.0538 56.9494 30.5693 5.87609 3.46279 13.9711 9.6472 24.6932 15.5538 7.23223 5.42747 26.3801 6.56799 2.62556 8.32159 2.83644 4.78055 9.1394 10.6751 9.44969
internal_count=3145 2154 1156 967 857 442 415 274 141 365 203 998 493 88 57 162 99 405 260 108 79 505 101 40 152 43 46 145 189 110
is_linear=0
shrinkage=0.1


Tree=13
num_leaves=31
num_cat=0
split_feature=11 21 19 12 20 0 4 26 24 20 2 9 3 5 9 3 2 9 5 19 21 23 20 19 4 20 19 0 9 4
split_gain=129.924 142.981 105.219 72.0311 38.1749 35.7125 74.9938 26.2862 22.5741 24.6605 18.87 9.681 7.54285 5.41768 5.19672 4.61823 5.88933 4.32553 2.06844 0.735433 0.242048 0.11443 0.109898 0.0855253 0.0746812 0.0370892 0.0246581 0.0147065 0.0100181 0.00830047
threshold=1.0000000180025095e-35 103.05000000000001 119.95000000000002 1.0000000180025095e-35 94.950000000000017 1.0000000180025095e-35 1.0000000180025095e-35 1.0000000180025095e-35 62.500000000000007 89.950000000000017 1.0000000180025095e-35 1.0000000180025095e-35 1.0000000180025095e-35 1.0000000180025095e-35 1.0000000180025095e-35 1.0000000180025095e-35 1.0000000180025095e-35 1.0000000180025095e-35 1.0000000180025095e-35 99.350000000000009 99.450000000000017 80.550000000000011 92.950000000000017 78.350000000000009 1.0000000180025095e-35 96.15000000000002 119.95000000000002 1.0000000180025095e-35 1.0000000180025095e-35 1.0000000180025095e-35
decision_type=2 2 2 2 2 2 2 2 2 2 2 2 2 2 2 2 2 2 2 2 2 2 2 2 2 2 2 2 2 2
left_child=1 2 3 4 7 12 10 8 9 -1 -7 13 14 -5 -6 16 17 -2 -13 -9 23 -8 -18 -17 26 29 28 -20 -3 -25
right_child=15 24 -4 11 5 6 21 19 -10 -11 -12 18 -14 -15 -16 20 22 -19 27 -21 -22 -23 -24 25 -26 -27 -28 -29 -30 -31
leaf_value=0.092188285740320175 -0.023937983911718627 0.10015265941580778 0.09527278212640479 -0.066484220403979957 -0.093724161163052058 0.031384918213398998 -0.093155929412933811 0.07848982408909444 0.11924989924878149 -0.051570936991550791 -0.076542870386996475 0.052397763584366791 -0.0031973131650638756 0.049611524448643023 -0.056109864321693959 0.084806286363868555 0.086934200063049027 0.070766944180913532 0.10362932826587473 0.11541850390945491 0.077930809449713409 -0.099952839609813673 0.10322755034492018 0.097626841324540997 0.10419040770167816 0.10251537196938663 0.09456818278236967 0.098890376305051084 0.09739849623279416 0.095259890127493696
leaf_weight=13.580053478479384 11.301340192556381 31.85850390791893 63.180540204048157 7.3016123771667489 235.74059408903122 117.28072002530098 66.701146513223648 9.9929649233818072 10.495467126369475 98.351057380437851 18.795890539884567 12.43324902653694 10.934421747922896 8.9424484968185425 43.509311258792877 6.8946957886219016 6.9770138859748867 8.4128442406654358 8.9221109151840192 11.714898645877836 8.3605044782161695 39.400985717773438 10.179628461599348 18.469811111688614 26.806129097938538 8.8111724555492383 16.215413719415665 24.615846157073975 22.558868199586868 74.887825280427933
leaf_count=39 31 96 201 20 729 333 201 29 29 273 52 36 30 25 127 21 21 23 26 33 25 119 30 57 78 26 52 75 70 238
internal_value=-0.000143995 -0.0146891 -0.0285882 -0.0391818 -0.0486515 -0.061012 -0.0326606 -0.00299782 -0.0209803 -0.0341293 0.0164771 0.0637873 -0.0846733 -0.00257285 -0.0878636 0.0846345 0.0537601 0.0164765 0.0872358 0.0984188 0.094329 -0.09568 0.0966016 0.095586 0.0996965 0.0963135 0.097991 0.100151 0.0990109 0.0957282
internal_weight=1053.63 899.332 801.893 738.713 676.498 532.363 242.179 144.134 122.427 111.931 136.077 62.2153 290.184 16.2441 279.25 154.295 36.8708 19.7142 45.9712 21.7079 117.424 106.102 17.1566 109.064 97.4389 102.169 70.6328 33.538 54.4174 93.3576
internal_count=3145 2673 2377 2176 1994 1591 705 403 341 312 385 182 886 45 856 472 105 54 137 62 367 320 51 342 296 321 218 101 166 295
is_linear=0
shrinkage=0.1


Tree=14
num_leaves=31
num_cat=0
split_feature=8 11 4 21 20 21 19 9 20 14 19 5 5 13 6 20 21 18 19 6 19 20 20 10 21 20 19 19 2 7
split_gain=105.258 81.8482 98.7708 61.3085 52.0328 34.8547 32.5694 44.4829 18.2366 19.1979 11.643 10.9733 8.61648 16.5307 6.56684 3.38822 2.91191 7.40842 2.39401 2.00983 2.0118 1.82748 1.78598 1.44626 0.832908 0.708325 0.667532 0.502049 0.261789 0.156484
threshold=1.0000000180025095e-35 1.0000000180025095e-35 1.0000000180025095e-35 103.05000000000001 94.450000000000017 103.05000000000001 119.95000000000002 1.0000000180025095e-35 89.950000000000017 1.0000000180025095e-35 117.65000000000002 1.0000000180025095e-35 1.0000000180025095e-35 1.0000000180025095e-35 1.0000000180025095e-35 96.850000000000009 98.850000000000009 1.0000000180025095e-35 90.15000000000002 1.0000000180025095e-35 85.250000000000014 93.050000000000011 96.450000000000017 1.0000000180025095e-35 99.550000000000011 98.750000000000014 76.850000000000009 79.350000000000009 1.0000000180025095e-35 1.0000000180025095e-35
decision_type=2 2 2 2 2 2 2 2 2 2 2 2 2 2 2 2 2 2 2 2 2 2 2 2 2 2 2 2 2 2
left_child=1 2 5 4 21 6 7 8 -1 -10 16 14 13 -9 22 24 17 -6 -17 20 25 28 -2 -18 27 -13 -14 -3 -4 -21
right_child=11 15 3 -5 10 -7 -8 12 9 -11 -12 19 26 -15 -16 18 23 -19 -20 29 -22 -23 -24 -25 -26 -27 -28 -29 -30 -31
leaf_value=-0.093606751904918156 -0.05928579073324014 -0.069299157030884448 -0.074641078881391265 -0.09865925307112984 0.034782239845013586 -0.093322270387205003 -0.090596541966009941 0.00091020396275256924 0.035363227920667616 -0.053293120018527963 -0.048329299854528586 0.097828578039673014 -0.065700838468036746 -0.084545136490897441 0.073349592540506839 -0.016005626347311279 0.079646959819805213 0.10232761201953587 -0.087781560886982649 0.1113741339900348 0.023980373990370202 -0.03300519405129166 0.010852474838915681 0.10089168262544967 -0.052704780387053278 0.059004031801937862 -0.098235486350913448 -0.092320481140878291 -0.099827283148700263 0.09980655983083675
leaf_weight=13.626735299825667 6.8856925964355469 10.411212921142576 7.7543836832046553 25.144010812044144 32.813394248485565 65.637032032012939 50.655679821968079 52.616733729839325 214.86324998736382 27.55768957734108 6.6820307970046988 15.318687587976461 7.885273575782775 39.728847056627274 14.148777306079865 12.100373178720476 48.341373294591904 32.145725697278976 7.544145554304122 13.986901760101317 6.8757656514644614 9.4837753474712354 7.6795859634876251 95.046825617551804 6.2285950183868399 6.7785356342792502 31.49513104557991 105.11564296483994 8.8220416605472565 71.356871843338013
leaf_count=41 20 33 24 77 91 216 174 145 589 81 21 45 24 125 39 33 137 95 23 39 20 28 21 274 19 20 98 351 27 215
internal_value=0.000338247 -0.0121743 0.00066302 0.0499346 0.065432 -0.0253609 -0.0151864 -0.0053354 0.0189577 0.025285 0.0816049 0.0800949 -0.052556 -0.0358543 0.0248285 -0.0821075 0.0857721 0.0682078 -0.04357 0.0939767 0.0712198 -0.0680152 -0.0223052 0.0937293 -0.0883253 0.0859188 -0.091721 -0.0902458 -0.0880453 0.101702
internal_weight=1054.73 911.7 770.3 266.234 241.09 504.066 438.429 387.774 256.048 242.421 215.029 143.031 131.726 92.3456 28.7141 141.4 208.347 64.9591 19.6445 114.317 28.973 26.0602 14.5653 143.388 121.755 22.0972 39.3804 115.527 16.5764 85.3438
internal_count=3145 2726 2267 774 697 1493 1277 1103 711 670 618 419 392 270 80 459 597 186 56 339 85 79 41 411 403 65 122 384 51 254
is_linear=0
shrinkage=0.1


Tree=15
num_leaves=31
num_cat=0
split_feature=3 21 26 27 9 18 5 8 2 7 15 2 22 22 21 22 23 22 19 4 23 23 23 23 21 23 22 21 23 21
split_gain=29.6147 16.493 14.4959 13.2232 12.0303 11.4206 10.2383 12.3261 11.1933 10.5379 6.9469 8.16936 8.61413 9.8242 5.34715 5.17327 2.94034 2.77028 2.49496 1.05294 1.41357 3.60136 0.857082 0.495199 0.470752 0.552853 1.49844 0.445665 0.320534 0.11526
threshold=1.0000000180025095e-35 99.450000000000017 1.0000000180025095e-35 1.0000000180025095e-35 1.0000000180025095e-35 1.0000000180025095e-35 1.0000000180025095e-35 1.0000000180025095e-35 1.0000000180025095e-35 1.0000000180025095e-35 1.0000000180025095e-35 1.0000000180025095e-35 119.45000000000002 117.15000000000002 102.45000000000002 115.45000000000002 86.450000000000017 118.95000000000002 94.850000000000009 1.0000000180025095e-35 85.15000000000002 88.050000000000011 94.15000000000002 66.550000000000011 100.25000000000001 63.350000000000001 104.85000000000001 98.950000000000017 77.15000000000002 102.25000000000001
decision_type=2 2 2 2 2 2 2 2 2 2 2 2 2 2 2 2 2 2 2 2 2 2 2 2 2 2 2 2 2 2
left_child=1 2 3 5 10 6 8 17 15 -9 11 12 13 14 -3 -1 18 -8 -14 20 24 -22 27 -7 -6 26 -26 -4 -5 -27
right_child=-2 4 22 28 19 23 7 9 -10 -11 -12 -13 16 -15 -16 -17 -18 -19 -20 -21 21 -23 -24 -25 25 29 -28 -29 -30 -31
leaf_value=0.17692918032195801 -0.068883198850765701 0.15062769458968095 -0.071438324438293024 -0.026198555821972759 0.014007839835372203 -0.00086781983242558097 0.16112307183123734 0.10867605161714045 -0.069434407098031975 -0.069252774978604589 -0.069998568803194716 -0.068897545833826193 -0.071309756742323413 0.3720056429307172 -0.0063771770358109067 0.099263921222450299 0.10726091565966407 0.050099616868761444 0.05810422477569941 -0.069123490976786536 0.10347822121301171 -0.069520058456453385 0.0031676022773159313 -0.069588178377983381 -0.06960535931334165 -0.069750031677811145 0.055455575967771731 -0.016741162182295113 -0.071965134030623226 -0.050906670074154607
leaf_weight=19.55823777243495 44.080976735800505 7.1538582257926553 8.0196928046643716 2.1629789657890788 1.1388508602976859 1.3812790736556042 7.5460272021591663 4.9152759723365298 2.6739591360092154 10.311569947749376 5.2279901616275302 4.2800904326140872 4.2499600648879987 1.5647599659860123 3.1131498925387859 15.274630617350338 2.2189599759876728 3.2007707841694355 2.2937038280069828 15.867004428058861 2.2872063331305972 2.5392497219145298 2.6105967350304118 4.3537311255931854 2.4003908373415501 7.9550086706876737 1.5944616235792635 1.829446006566285 5.2317556627094746 5.483792494982481
leaf_count=134 982 83 115 28 13 18 56 44 55 204 90 94 59 13 48 109 26 28 24 330 31 47 32 83 45 143 28 27 68 115
internal_value=0.00361459 0.023785 0.0522582 0.0685275 -0.0127748 0.082107 0.0943163 0.0460569 0.127736 -0.0118168 0.0347876 0.0568111 0.0829368 0.138594 0.103021 0.142872 0.0077851 0.128056 -0.0259472 -0.0492377 -0.035753 0.012462 -0.0477756 -0.0530369 -0.0482826 -0.0523517 -0.0196899 -0.0612785 -0.0585783 -0.0620609
internal_weight=202.519 158.438 89.07 76.6102 69.3684 69.2155 63.4805 25.9736 37.5068 15.2268 30.1025 24.8745 20.5944 11.8318 10.267 34.8329 8.76262 10.7468 6.54366 39.266 23.399 4.82646 12.4597 5.73501 18.5725 17.4337 3.99485 9.84914 7.39473 13.4388
internal_count=3172 2190 1001 827 1189 731 630 332 298 248 437 347 253 144 131 243 109 84 83 752 422 78 174 101 344 331 73 142 96 258
is_linear=0
shrinkage=0.1


Tree=16
num_leaves=31
num_cat=0
split_feature=8 11 21 4 3 21 13 5 27 2 20 22 13 20 15 21 20 10 28 23 0 21 22 23 23 6 22 21 22 21
split_gain=102.228 76.0225 93.9738 63.3277 68.6609 48.19 17.0493 20.6254 17.213 10.985 9.46271 8.61299 6.67901 6.12959 3.84662 3.59601 3.34641 3.14064 1.30448 0.764007 0.98807 0.677597 0.594813 0.587041 0.308993 0.219804 0.456839 0.210328 0.565382 0.194445
threshold=1.0000000180025095e-35 1.0000000180025095e-35 103.05000000000001 1.0000000180025095e-35 1.0000000180025095e-35 99.550000000000011 1.0000000180025095e-35 1.0000000180025095e-35 1.0000000180025095e-35 1.0000000180025095e-35 94.550000000000011 128.05000000000004 1.0000000180025095e-35 90.450000000000017 1.0000000180025095e-35 100.65000000000002 97.350000000000009 1.0000000180025095e-35 1.0000000180025095e-35 65.450000000000017 1.0000000180025095e-35 99.550000000000011 142.55000000000004 86.65000000000002 91.750000000000014 1.0000000180025095e-35 108.65000000000002 98.850000000000009 122.25000000000001 98.750000000000014
decision_type=2 2 2 2 2 2 2 2 2 2 2 2 2 2 2 2 2 2 2 2 2 2 2 2 2 2 2 2 2 2
left_child=1 2 3 5 9 10 7 8 -7 19 11 13 14 -1 -12 22 21 -8 -6 20 -5 27 25 -9 -21 26 -2 -3 -29 -18
right_child=15 16 -4 4 18 6 17 23 -10 -11 12 -13 -14 -15 -16 -17 29 -19 -20 24 -22 -23 -24 -25 -26 -27 -28 28 -30 -31
leaf_value=0.041094073032270098 -0.062497041601935303 0.090840751270155007 0.094045688677442285 -0.096536464576178121 0.062320493181720761 -0.0020740892965471127 0.04154564101551142 0.077490293709814251 0.098622801569305224 0.043591007281648317 -0.076309430502516581 0.07412470212560876 0.01718154467737832 -0.064074498556691992 -0.00023441150666629078 -0.011504037660903325 0.024270252362249198 0.097361675761727273 0.10529901475847386 -0.089023232013362208 -0.057654272679132784 0.054447970496019307 -0.056808490300312646 0.10913059846064384 -0.075508398901667648 -0.091636167450290643 -0.089706061760495059 0.057339140306215008 0.08845996723316521 0.047208245823247834
leaf_weight=8.0095542669296282 8.769876033067705 81.402940005064011 92.270252674818039 9.5410847365856188 12.60627916455269 197.7089746594429 13.811275690793989 35.567851781845093 18.570023089647293 6.9616176784038535 75.16844254732132 10.929833352565764 9.941857695579527 17.988140612840652 7.2912430465221396 6.5669005513191214 7.2559517323970777 37.323836922645569 16.057780653238297 132.42216768860817 20.747738540172577 6.3120196461677542 6.0107522308826438 7.0215179026126853 19.394898265600204 85.860009670257568 20.821075081825256 7.5481435656547538 25.761116564273834 7.531597912311554
leaf_count=24 29 272 301 30 37 585 39 110 54 20 227 31 28 51 20 19 20 117 48 427 66 19 20 21 62 293 70 24 87 21
internal_value=-5.98259e-05 0.0120208 -0.000455773 -0.0137264 -0.0578254 0.00812887 0.0295206 0.0190977 0.00657189 -0.0796907 -0.0431474 -0.000359224 -0.0602474 -0.0316734 -0.0695827 -0.083581 0.0808595 0.0822861 0.0863973 -0.0844036 -0.0699023 0.0863465 -0.0874779 0.0827067 -0.0872967 -0.0890746 -0.0816421 0.0881017 0.0814077 0.035953
internal_weight=1013.17 885.146 749.334 657.064 217.732 439.333 310.003 258.868 216.279 189.068 129.329 36.9275 92.4015 25.9977 82.4597 128.029 135.812 51.1351 28.6641 182.106 30.2888 121.024 121.462 42.5894 151.817 115.451 29.591 114.712 33.3093 14.7875
internal_count=3172 2741 2298 1997 690 1307 926 770 639 605 381 106 275 75 247 431 443 156 85 585 96 402 412 131 489 392 99 383 111 41
is_linear=0
shrinkage=0.1


Tree=17
num_leaves=31
num_cat=0
split_feature=7 21 11 4 3 19 2 26 27 21 5 20 3 19 17 19 8 21 21 22 28 17 20 8 22 19 23 20 4 19
split_gain=92.1676 57.2035 70.8352 81.6529 57.0469 28.4733 30.0141 32.944 28.7325 15.2224 12.1841 10.9336 7.80785 7.62149 6.73651 6.29087 5.3411 3.73778 2.60993 1.6423 1.36274 1.3369 1.22675 1.21555 2.87217 0.266083 0.144715 0.0385126 0.0267771 0.00890794
threshold=1.0000000180025095e-35 103.05000000000001 1.0000000180025095e-35 1.0000000180025095e-35 1.0000000180025095e-35 119.95000000000002 1.0000000180025095e-35 1.0000000180025095e-35 1.0000000180025095e-35 99.850000000000009 1.0000000180025095e-35 93.950000000000017 1.0000000180025095e-35 117.35000000000001 1.0000000180025095e-35 74.15000000000002 1.0000000180025095e-35 100.75000000000001 98.850000000000009 114.25000000000001 1.0000000180025095e-35 1.0000000180025095e-35 97.550000000000011 1.0000000180025095e-35 122.05000000000001 78.750000000000014 68.250000000000014 93.850000000000009 1.0000000180025095e-35 119.95000000000002
decision_type=2 2 2 2 2 2 2 2 2 2 2 2 2 2 2 2 2 2 2 2 2 2 2 2 2 2 2 2 2 2
left_child=1 2 3 5 11 6 9 8 -8 14 16 -5 -11 21 -1 -4 18 22 -2 -18 -6 -13 25 24 -12 -17 -27 -22 29 -3
right_child=10 28 15 4 20 -7 7 -9 -10 12 23 13 -14 -15 -16 17 19 -19 -20 -21 27 -23 -24 -25 -26 26 -28 -29 -30 -31
leaf_value=-0.0033427062492782408 -0.062483201391085 -0.089527850434403602 -0.0048691258754952962 -0.056560572434137736 -0.054364008574103423 -0.086579117099945924 0.071297115851357881 -0.11194625432194819 -0.1087499887083629 -0.050310867388778914 0.038766075789908649 0.078254199653217851 0.033477271139706187 -0.030907235277982611 0.082956943314432138 -0.06592885866880295 0.03016103181635061 -0.00050777110337956203 0.01610848869175048 0.094853707851940458 -0.094892595644453848 0.097794738949791404 -0.041239735199926436 0.094648721968241589 0.10930303296698118 -0.071824954234102831 -0.088337037855946848 -0.10509902847036319 -0.092883193472523634 -0.086567760446616876
leaf_weight=84.805150657892227 7.589576959609988 50.363576382398605 12.53409695625305 6.0898153185844413 12.113806217908859 51.496237456798553 93.175411701202393 13.504270285367964 9.7952022254466993 154.89864403009415 13.439086228609087 143.3764528632164 11.981866002082823 6.0588882863521567 10.125096827745436 6.1395020186901084 7.9665134251117689 5.7063631713390341 9.5328694581985456 7.7334709465503693 8.1739127635955793 46.32550460100174 6.4671246707439414 87.722804099321365 10.119388997554777 5.631105661392211 92.428106635808945 6.7501105964183816 23.526584059000015 12.737626552581785
leaf_count=241 21 178 37 18 37 194 259 39 28 468 37 424 33 20 30 20 22 17 27 22 27 144 18 282 28 20 335 20 78 48
internal_value=-0.000659339 -0.012874 -0.00439024 0.00887701 0.0571233 -0.0168175 -0.00732076 0.0349102 0.0541699 -0.0261085 0.0734407 0.0753948 -0.044295 0.0794997 0.00586187 -0.0721817 0.0199 -0.0794318 -0.0187275 0.0620272 -0.0792826 0.083026 -0.0835014 0.0892325 0.0690648 -0.0861244 -0.0873888 -0.0995089 -0.0900039 -0.0889303
internal_weight=1018.31 874.204 787.577 658.67 228.888 429.782 378.286 116.475 102.971 261.811 144.104 201.851 166.881 195.761 94.9302 128.906 32.8224 116.372 17.1224 15.7 27.0378 189.702 110.666 111.281 23.5585 104.199 98.0592 14.924 86.6278 63.1012
internal_count=3172 2733 2429 1982 690 1292 1098 326 287 772 439 606 501 588 271 447 92 410 48 44 84 568 393 347 65 375 355 47 304 226
is_linear=0
shrinkage=0.1


Tree=18
num_leaves=31
num_cat=0
split_feature=20 9 18 14 2 5 13 26 21 8 22 23 24 19 21 23 10 5 4 13 23 20 24 23 21 21 20 21 21 4
split_gain=27.6529 13.756 11.3277 12.491 13.5221 17.9893 11.3316 9.72403 9.22272 8.64725 9.14534 3.77679 3.89808 4.28481 5.59981 2.40753 1.69904 1.81099 3.25384 2.7032 3.07475 1.31864 1.25101 0.597552 0.00623114 0.00146114 0.000622555 0.000512647 0.000490075 0.000234337
threshold=95.15000000000002 1.0000000180025095e-35 1.0000000180025095e-35 1.0000000180025095e-35 1.0000000180025095e-35 1.0000000180025095e-35 1.0000000180025095e-35 1.0000000180025095e-35 100.05000000000001 1.0000000180025095e-35 122.25000000000001 81.450000000000017 44.500000000000007 82.15000000000002 98.350000000000009 59.150000000000013 1.0000000180025095e-35 1.0000000180025095e-35 1.0000000180025095e-35 1.0000000180025095e-35 85.15000000000002 98.350000000000009 34.500000000000007 66.250000000000014 98.850000000000009 100.55000000000001 98.65000000000002 99.250000000000014 100.65000000000002 1.0000000180025095e-35
decision_type=2 2 2 2 2 2 2 2 2 2 2 2 2 2 2 2 2 2 2 2 2 2 2 2 2 2 2 2 2 2
left_child=-1 2 3 4 5 6 7 -2 11 10 -7 12 13 21 -15 -11 17 18 19 20 -10 -3 -13 -4 -5 -18 -24 -25 -26 -27
right_child=1 8 23 24 -6 9 -8 -9 16 15 -12 22 -14 14 -16 -17 25 -19 -20 -21 -22 -23 26 27 28 29 -28 -29 -30 -31
leaf_value=-0.068593972603268105 0.14608727072747066 -0.074526168948810576 0.0032008657030159144 -0.076364201579689955 -0.069348288362720445 0.12778779641294136 -0.070460076849180334 -0.02062343693975598 0.030400776151878819 0.084052152033793723 -0.048796747601658128 0.02926641711290753 0.15365976206419371 0.18749172320277679 0.0041866263938488682 -0.035224833329958141 -0.07240026931560585 -0.069200312319899024 -0.069641437165482462 -0.069644814646101241 0.20953420683926394 0.031523570498568181 -0.070368321870882447 -0.069254709182965266 -0.071655425578111567 -0.069224719907574103 -0.073043907425415555 -0.071020751560742695 -0.069404169077931191 -0.068496433404347912
leaf_weight=41.436973068863153 39.111344765871763 3.230590123683216 1.3028358109295357 2.2947764396667472 6.8121300898492327 10.647762425243853 2.9805752374231806 3.8425466343760482 2.9751987867057306 1.8806269280612493 4.047841750085353 1.8916785456240166 3.4932127669453612 2.9983594231307507 3.7520844452083111 16.891609597951174 1.2431374266743684 5.6599191613495341 3.8247657082974911 1.4438891336321829 1.4134080484509466 1.8404300734400747 1.9555699415504935 5.8350507207214815 1.3404035270214079 8.6660349518060684 1.5660713464021681 2.2882566601037979 3.4708269611001015 9.0132117383182049
leaf_count=1037 290 34 18 16 136 72 44 44 48 25 39 17 33 22 38 295 18 123 65 25 14 16 29 124 16 180 17 34 70 233
internal_value=0.00410363 0.0232038 0.0448052 0.0553579 0.0658614 0.0774614 0.11809 0.131174 -0.0171739 0.0216984 0.0791483 0.0354717 0.0608499 0.0334248 0.0856057 -0.0232755 -0.0490446 -0.0242854 0.00203827 0.0490435 0.088093 -0.0360374 -0.0363251 -0.059669 -0.0720765 -0.0690864 -0.0715582 -0.0697522 -0.0700314 -0.0688534
internal_weight=199.151 157.714 102.747 93.3204 86.2144 79.4023 45.9345 42.9539 54.9676 33.4678 14.6956 20.728 15.3147 11.8215 6.75044 18.7722 34.2396 15.3172 9.65726 5.8325 4.38861 5.07102 5.41332 9.42614 7.10601 18.9224 3.52164 8.12331 4.81123 17.6792
internal_count=3172 2135 1223 1047 945 809 378 334 912 431 111 206 143 110 60 320 706 275 152 87 62 50 63 176 102 431 46 158 86 413
is_linear=0
shrinkage=0.1


Tree=19
num_leaves=31
num_cat=0
split_feature=7 11 21 19 13 10 22 5 10 3 21 21 19 4 21 21 19 24 22 24 19 23 22 23 24 8 21 3 24 19
split_gain=91.8943 59.2415 77.7535 67.3817 48.1784 35.154 22.5547 20.7313 9.45562 7.24134 5.62976 5.44144 4.43489 3.32898 2.90811 2.88782 0.643623 1.8914 0.520869 0.424011 0.260113 0.194743 0.137006 0.099156 0.0921965 0.0966796 0.0466508 0.0458082 0.0250895 0.0235378
threshold=1.0000000180025095e-35 1.0000000180025095e-35 103.05000000000001 119.95000000000002 1.0000000180025095e-35 1.0000000180025095e-35 139.05000000000004 1.0000000180025095e-35 1.0000000180025095e-35 1.0000000180025095e-35 100.45000000000002 101.25000000000001 74.15000000000002 1.0000000180025095e-35 100.75000000000001 101.35000000000001 85.050000000000011 31.500000000000004 144.05000000000004 36.500000000000007 96.750000000000014 92.750000000000014 114.25000000000001 66.750000000000014 70.500000000000014 1.0000000180025095e-35 98.350000000000009 1.0000000180025095e-35 26.500000000000004 119.95000000000002
decision_type=2 2 2 2 2 2 2 2 2 2 2 2 2 2 2 2 2 2 2 2 2 2 2 2 2 2 2 2 2 2
left_child=1 2 3 4 5 6 7 -1 10 -8 -6 18 -3 15 16 -7 17 -14 24 20 -10 -19 -15 -18 25 26 -2 28 -25 -4
right_child=11 12 29 -5 8 13 9 -9 19 -11 -12 -13 14 22 -16 -17 23 21 -20 -21 -22 -23 -24 27 -26 -27 -28 -29 -30 -31
leaf_value=-0.038033317956690529 -0.087386503628250692 0.017534044792649844 0.090479598804176734 0.088558069669821757 -0.065985724733848741 -0.08099150577295898 0.0032551879383067375 0.023326898414741885 0.10201021552047712 0.094002084737889666 0.043902336691836338 0.0099715373034117896 0.025252506994130744 -0.09229311966668606 0.014696622413687349 -0.028022119925185031 0.075263936936988962 0.10242055888087787 -0.057045798772233806 0.070947932963614208 0.083505861486077998 0.078837368789423698 -0.084473497554154495 0.098655630041793951 -0.074905028885287078 -0.0866027407769413 -0.096371603819954479 0.087526391883216231 0.089664377865964276 0.086108551597585667
leaf_weight=265.83060309290886 8.4120236337184924 12.583342403173445 70.502349823713303 60.257541239261627 7.3777483403682735 19.932624578475952 14.73488602042198 69.446897029876709 15.713545292615892 21.807435542345047 12.666379451751707 6.198735535144805 6.9082230329513576 39.83078795671463 6.4349735975265494 21.281468480825424 6.058718502521514 6.1472323238849631 5.8234049677848807 12.123100280761717 14.705921381711958 8.135690510272978 51.217849642038345 6.1480146646499616 5.3312095105648032 77.946589007973671 18.457441061735153 70.070364087820053 6.2671056389808655 14.928089469671248
leaf_count=808 27 37 245 217 21 58 47 222 50 66 36 18 22 136 19 58 21 20 20 38 48 29 177 20 20 295 59 259 22 57
internal_value=-0.000270602 0.0115006 0.000217837 -0.0119779 -0.0226686 -0.0329428 -0.0171925 -0.0253236 0.0600821 0.0574104 0.00345526 -0.0813132 0.0739252 -0.0772204 0.0800334 -0.05364 0.0838648 0.0682101 -0.0861924 0.0867621 0.0930645 0.0889873 -0.0878943 0.0876114 -0.0877334 -0.0883859 -0.0935586 0.0885183 0.0941169 0.0897158
internal_weight=963.28 841.111 712.357 626.927 566.669 504.083 371.82 335.278 62.5867 36.5423 20.0441 122.169 128.754 132.263 116.17 41.2141 109.735 21.1911 115.971 42.5426 30.4195 14.2829 91.0486 88.5442 110.147 104.816 26.8695 82.4855 12.4151 85.4304
internal_count=3172 2733 2284 1982 1765 1572 1143 1030 193 113 57 439 449 429 412 116 393 71 421 136 98 49 313 322 401 381 86 301 42 302
is_linear=0
shrinkage=0.1


Tree=20
num_leaves=31
num_cat=0
split_feature=7 16 21 11 4 3 19 2 26 6 9 10 17 5 19 19 9 19 21 21 5 24 22 22 22 19 28 19 4 19
split_gain=75.9945 52.1439 39.1045 49.0524 48.6353 45.3204 24.5583 31.9072 27.9348 11.4476 7.08618 6.99694 5.00519 4.87734 4.69517 3.9888 3.31421 2.97888 2.87179 2.77766 1.71638 1.65738 1.61957 1.42649 0.881137 0.356477 0.353044 0.303873 0.169756 0.120256
threshold=1.0000000180025095e-35 1.0000000180025095e-35 103.05000000000001 1.0000000180025095e-35 1.0000000180025095e-35 1.0000000180025095e-35 118.85000000000001 1.0000000180025095e-35 1.0000000180025095e-35 1.0000000180025095e-35 1.0000000180025095e-35 1.0000000180025095e-35 1.0000000180025095e-35 1.0000000180025095e-35 76.850000000000009 90.950000000000017 1.0000000180025095e-35 114.95000000000002 98.850000000000009 99.850000000000009 1.0000000180025095e-35 37.500000000000007 115.25000000000001 121.75000000000001 109.35000000000001 120.35000000000001 1.0000000180025095e-35 59.350000000000001 1.0000000180025095e-35 76.350000000000009
decision_type=2 2 2 2 2 2 2 2 2 2 2 2 2 2 2 2 2 2 2 2 2 2 2 2 2 2 2 2 2 2
left_child=1 2 3 4 6 11 7 10 -9 13 -1 12 -6 18 16 27 -5 -13 -2 -16 21 -11 -17 24 -15 -8 -7 -3 -29 -30
right_child=9 15 -4 14 5 26 25 8 -10 20 -12 17 -14 23 19 22 -18 -19 -20 -21 -22 -23 -24 -25 -26 -27 -28 28 29 -31
leaf_value=-0.012054262000709864 -0.065723911259460796 0.070361453748523498 -0.086230475666115913 0.017606600683476661 0.017470229125906702 -0.069429536420723761 -0.059171716878877324 0.05280726739269103 -0.10806594461317638 0.027877466477389326 -0.046308480027166227 0.084156072396764176 0.095593597196366425 0.065341619094839445 -0.083213462650027659 0.061098532575795374 -0.074812960679133872 0.013607487733147973 0.018044166235176781 -0.0084856764843011991 0.093476773079463699 0.093807457006299791 -0.010364483140255483 0.087372567008829394 0.01701899571858928 -0.084848301670088833 -0.094112747391507184 0.10380994254045701 0.093449636220374999 0.080847921739540085
leaf_weight=118.87663471698761 7.0304816365242031 7.4779942333698264 77.715730026364326 9.3321474194526655 39.100960493087769 9.9731514453887939 6.1072301715612403 99.05923992395401 12.113858029246328 8.6094777882099134 122.75638094544411 95.135174989700317 10.377325862646101 6.1790823936462429 93.714138999581337 6.4778962582349759 6.6417203843593589 6.3869926631450644 9.7936134040355665 5.2529191076755515 80.083834081888199 6.8438983261585227 6.2128557860851288 8.1156363785266858 9.6926774680614454 47.158557489514351 13.830379351973534 9.7418166399002057 20.326191186904907 12.068954169750212
leaf_count=339 20 25 299 29 115 32 20 280 36 24 388 301 33 20 367 21 20 20 28 16 270 20 20 27 30 187 47 30 68 40
internal_value=-0.0005725 -0.0118648 -0.0189534 -0.0114393 0.000371504 0.0444737 -0.0186134 -0.00905789 0.0352779 0.0686507 -0.0294564 0.06469 0.0338554 0.0243177 -0.0711272 0.076142 -0.0208202 0.0797177 -0.016961 -0.0792471 0.0875889 0.0570761 0.0261133 0.0532694 0.0358316 -0.0819043 -0.083771 0.0889386 0.0922355 0.0887548
internal_weight=972.187 835.838 773.533 695.817 580.876 174.804 406.072 352.806 111.173 136.349 241.633 151 49.4783 40.8115 114.941 62.3057 15.9739 101.522 16.8241 98.9671 95.5372 15.4534 12.6908 23.9874 15.8718 53.2658 23.8035 49.615 42.137 32.3951
internal_count=3172 2733 2529 2230 1798 548 1250 1043 316 439 727 469 148 125 432 204 49 321 48 383 314 44 41 77 50 207 79 163 138 108
is_linear=0
shrinkage=0.1


Tree=21
num_leaves=31
num_cat=0
split_feature=20 9 16 14 2 7 6 12 11 21 8 8 23 24 10 12 21 21 21 21 20 10 24 21 21 20 21 15 20 21
split_gain=24.9402 11.9145 10.1569 11.1605 11.3476 13.4301 17.624 9.66851 8.99309 8.06459 8.02608 4.97509 3.03045 2.73564 1.67276 1.73171 1.62515 2.25034 1.58626 5.91321 2.21738 1.26152 1.16005 0.00488833 0.00146432 0.000638805 0.000427919 0.000276502 0.000253323 0.000215723
threshold=95.15000000000002 1.0000000180025095e-35 1.0000000180025095e-35 1.0000000180025095e-35 1.0000000180025095e-35 1.0000000180025095e-35 1.0000000180025095e-35 1.0000000180025095e-35 1.0000000180025095e-35 100.05000000000001 1.0000000180025095e-35 1.0000000180025095e-35 81.450000000000017 49.500000000000007 1.0000000180025095e-35 1.0000000180025095e-35 98.350000000000009 99.15000000000002 102.75000000000001 103.05000000000001 98.850000000000009 1.0000000180025095e-35 34.500000000000007 98.850000000000009 100.55000000000001 98.65000000000002 100.75000000000001 1.0000000180025095e-35 97.750000000000014 100.85000000000001
decision_type=2 2 2 2 2 2 2 2 2 2 2 2 2 2 2 2 2 2 2 2 2 2 2 2 2 2 2 2 2 2
left_child=-1 2 3 4 5 7 10 8 -2 12 -7 -8 13 16 15 18 -3 21 20 -20 28 -18 -14 -5 -16 -24 -25 -28 -11 -26
right_child=1 9 -4 23 -6 6 11 -9 -10 14 -12 -13 22 -15 24 -17 17 -19 19 -21 -22 -23 25 26 29 -27 27 -29 -30 -31
leaf_value=-0.068426791844732812 0.12384973324501763 0.079527197680320363 -0.069095274893390693 -0.075501031613459932 -0.06913633262306508 0.20713703073997719 0.025820297529285718 -0.072283544916713946 -0.073032327546967299 -0.069676544903101365 0.042920887610735481 -0.072667199975138583 0.026516673370632984 0.14473461972997795 -0.072384238476978183 -0.068877745397311604 -0.073967433301350471 0.088683929578550091 0.21326964501618267 -0.06897791926673516 0.049345022663941168 0.018172115600853904 -0.07003127456951487 -0.071350416200688827 -0.069802634606525374 -0.07284238480552023 -0.070325233505931214 -0.068466991196489385 -0.071264009176037091 -0.068588327015419073
leaf_weight=37.798839109018445 44.554262990131974 4.9959627017378869 7.6689321864396325 2.2875497341155997 6.3331716880202285 5.4642855674028379 8.4938305169343948 2.9754067435860625 2.4474930986762038 2.3436989672481996 6.5365887768566608 12.947570588439703 1.9289661943912495 2.6995368413627139 1.1627266965806509 5.3468478340655556 2.8292340263724309 2.4252945482730865 1.3912239708006384 1.5912838652729986 2.4843085929751396 3.1296749860048294 1.7879983857274058 1.3558884076774118 1.6263016685843492 1.4754374846816061 1.3709944523870945 1.9251457042992115 1.7601941674947736 14.568090464919804
leaf_count=1037 358 37 172 18 138 24 56 39 28 41 68 234 17 23 18 130 31 25 14 35 32 27 29 17 32 17 20 51 23 381
internal_value=0.00453745 0.0220031 0.0416789 0.0504647 0.0599116 0.0697089 0.0206583 0.102531 0.113598 -0.0163445 0.117692 -0.0336522 0.031458 0.0529063 -0.0478509 -0.0232939 0.0343793 0.00747671 0.00217239 0.0626796 -0.0252195 -0.0255749 -0.0349627 -0.0717162 -0.0689564 -0.0713022 -0.069855 -0.0692399 -0.0703574 -0.0687103
internal_weight=195.707 157.908 104.361 96.6922 89.7526 83.4194 33.4423 49.9772 47.0018 53.5468 12.0009 21.4414 21.2721 16.0797 32.2747 14.9176 13.3802 8.3842 9.57071 2.98251 6.5882 5.95891 5.1924 6.93958 17.3571 3.26344 4.65203 3.29614 4.10389 16.1944
internal_count=3172 2135 1223 1051 945 807 382 425 386 912 92 290 206 143 706 275 120 83 145 49 96 58 63 106 431 46 88 71 64 413
is_linear=0
shrinkage=0.1


Tree=22
num_leaves=31
num_cat=0
split_feature=7 21 11 4 3 21 13 5 14 2 20 9 22 5 21 3 2 9 9 9 23 20 24 23 22 20 20 20 20 24
split_gain=76.5934 50.3585 65.3961 46.2274 48.7584 29.9993 13.5065 15.6309 15.0363 9.08313 7.73092 7.71891 7.5159 6.58625 6.25373 3.96894 3.92106 3.7277 3.33063 2.563 1.12737 1.0436 0.874646 0.956322 0.632592 1.55975 0.133535 0.132567 0.11901 0.0555898
threshold=1.0000000180025095e-35 103.05000000000001 1.0000000180025095e-35 1.0000000180025095e-35 1.0000000180025095e-35 99.550000000000011 1.0000000180025095e-35 1.0000000180025095e-35 1.0000000180025095e-35 1.0000000180025095e-35 89.950000000000017 1.0000000180025095e-35 139.45000000000002 1.0000000180025095e-35 101.45000000000002 1.0000000180025095e-35 1.0000000180025095e-35 1.0000000180025095e-35 1.0000000180025095e-35 1.0000000180025095e-35 74.050000000000011 95.15000000000002 72.500000000000014 65.450000000000017 118.75000000000001 91.15000000000002 92.15000000000002 99.450000000000017 93.450000000000017 36.500000000000007
decision_type=2 2 2 2 2 2 2 2 2 2 2 2 2 2 2 2 2 2 2 2 2 2 2 2 2 2 2 2 2 2
left_child=1 2 3 5 9 10 7 8 -7 22 -1 12 -12 -13 21 16 18 -9 -4 -8 -6 -2 23 -5 25 -17 -22 -21 -18 -28
right_child=14 -3 15 4 20 6 19 17 -10 -11 11 13 -14 -15 -16 24 28 -19 -20 27 26 -23 -24 -25 -26 -27 29 -29 -30 -31
leaf_value=0.079984431785968313 -0.043426982007333137 0.086258668507257982 -0.027315993855079681 -0.060678765732855355 0.039146138574076846 -0.0048838434048047892 0.035961210505445637 0.021480882375270002 0.082860584896635114 0.04155825786353138 -0.064031840575785592 -0.027622105664939486 0.040278289341680359 0.076989645822709174 0.02638669747686416 0.022030235791278968 0.069613467807691801 0.090681054058782198 0.05751840223721795 0.091568446114812824 0.075411241367657839 -0.08544562430189212 -0.044252947873942114 -0.081593901497887783 0.084992719878119904 0.085894415914389732 0.086665739760883542 0.074918313228274441 0.088876982500000978 0.099420873208804841
leaf_weight=5.621071830391883 6.2786331027746192 78.892665147781372 10.454586565494537 26.472291678190231 6.2188106924295452 183.76973201334476 12.641749024391173 10.545126572251318 21.852369576692581 6.8243265450000754 78.748732432723045 18.834703415632248 7.5717879086732855 8.8444634377956408 5.4960508346557608 5.9073231518268612 5.3573975563049299 29.734389260411263 8.3036180734634399 28.075601443648338 5.8835331201553371 100.90926912426949 8.1134276986122114 125.52009223401546 70.476809442043304 10.844672560691832 6.4522531032562238 5.7635788321495047 7.9903709292411804 7.263042151927948
leaf_count=18 21 304 29 94 20 570 38 31 65 20 244 57 23 27 16 22 20 101 23 98 21 402 30 462 282 42 20 20 29 23
internal_value=-0.000444255 0.0103902 0.00212396 -0.0112259 -0.0516478 0.00768474 0.0249444 0.0156 0.00444114 -0.0714276 -0.0345021 -0.0401472 -0.0548821 0.00580501 -0.0776499 0.0697767 0.0397166 0.0725645 0.0102373 0.07438 0.076243 -0.0829843 -0.0762435 -0.0779511 0.0808409 0.0633737 0.088014 0.0887326 0.0811452 0.0934203
internal_weight=915.662 802.979 724.086 604.751 192.748 412.003 292.383 245.902 205.622 166.93 119.621 114 86.3205 27.6792 112.684 119.335 32.106 40.2795 18.7582 46.4809 25.8176 107.188 160.106 151.992 87.2288 16.752 19.5988 33.8392 13.3478 13.7153
internal_count=3172 2733 2429 1982 690 1292 923 767 635 606 369 351 267 84 439 447 101 132 52 156 84 423 586 556 346 64 64 118 49 43
is_linear=0
shrinkage=0.1


Tree=23
num_leaves=31
num_cat=0
split_feature=8 16 11 21 4 20 9 24 20 5 13 5 21 18 20 20 22 20 21 9 0 22 22 20 28 23 22 20 23 17
split_gain=62.9081 43.5321 34.4397 43.3417 38.4707 29.1798 15.4154 12.242 12.1283 8.77102 6.43285 14.3269 6.415 5.12077 3.70561 2.96418 2.62325 1.92431 1.52317 1.49985 1.16367 1.14446 0.95646 0.725277 0.613038 0.402515 0.342848 0.300476 0.269739 0.265594
threshold=1.0000000180025095e-35 1.0000000180025095e-35 1.0000000180025095e-35 103.05000000000001 1.0000000180025095e-35 93.950000000000017 1.0000000180025095e-35 61.500000000000007 89.950000000000017 1.0000000180025095e-35 1.0000000180025095e-35 1.0000000180025095e-35 99.250000000000014 1.0000000180025095e-35 97.350000000000009 94.550000000000011 113.75000000000001 94.750000000000014 99.65000000000002 1.0000000180025095e-35 1.0000000180025095e-35 125.55000000000001 102.35000000000001 99.250000000000014 1.0000000180025095e-35 67.450000000000017 125.15000000000002 96.750000000000014 59.150000000000013 1.0000000180025095e-35
decision_type=2 2 2 2 2 2 2 2 2 2 2 2 2 2 2 2 2 2 2 2 2 2 2 2 2 2 2 2 2 2
left_child=1 2 3 4 6 26 7 8 -1 16 11 -8 13 -7 25 -3 22 -9 29 -14 -12 -18 -2 28 -25 -4 -6 -27 -11 -17
right_child=9 15 14 -5 5 12 10 17 -10 23 20 -13 19 -15 -16 18 21 -19 -20 -21 -22 -23 -24 24 -26 27 -28 -29 -30 -31
leaf_value=-0.088270363683316144 0.011476650742153469 0.0094110743221336966 -0.051305194603491137 -0.083134932701371969 -0.060478473173931235 0.010352878060610218 0.001729613193017443 -0.10382175873267341 0.008142035649338214 0.06480656892739807 -0.044109342475862373 -0.079763964536413087 0.047603157691510883 0.095886061832394287 -0.018935635404953185 0.072312869733300172 0.075412582986029805 -0.038528595733454157 0.033097196590677801 0.076395540243263158 -0.087993556719628718 0.019012132312042268 -0.040325347368743575 0.045149076685953887 0.082425124674604625 -0.080592922748235957 -0.090262201042508886 -0.056134154910984425 0.0855247818555155 0.090598419835233479
leaf_weight=13.793388858437536 7.3222817182540911 6.6571801304817191 5.5498520880937567 69.619136199355125 5.7085846215486553 39.947074949741364 54.840396910905838 12.162896722555162 241.33787676692009 6.8826967179775229 7.5312562882900229 35.561848849058151 23.647400856018066 8.4864830076694471 12.277052849531172 10.225827068090437 7.0837501287460309 7.1773433387279502 6.0414796173572531 77.016010463237762 30.566647827625275 7.3109367489814758 6.9448812305927277 10.090156584978105 7.839924067258834 81.415328159928322 11.967350035905836 5.3529827147722235 72.245904058218002 35.586648613214493
leaf_count=47 21 21 22 296 20 121 156 40 739 24 24 126 76 28 36 33 21 20 21 261 115 22 20 35 28 351 43 19 260 126
internal_value=-0.000518451 -0.0108229 -0.0173547 -0.00865234 0.000448951 0.0408413 -0.0162677 -0.00288508 0.00292961 0.0652543 -0.0448526 -0.0303278 0.0552437 0.0253399 -0.07055 0.0722283 0.0166486 -0.0795909 0.080293 0.0696318 -0.0793185 0.0467673 -0.0137392 0.0796078 0.061448 -0.077414 -0.0806433 -0.079084 0.0837227 0.0865169
internal_weight=928.191 802.47 743.959 639.364 569.745 166.773 402.972 274.472 255.131 125.721 128.5 90.4022 149.097 48.4336 104.595 58.5111 28.6618 19.3402 51.854 100.663 38.0979 14.3947 14.2672 97.0587 17.9301 92.3182 17.6759 86.7683 79.1286 45.8125
internal_count=3172 2741 2540 2112 1816 549 1267 846 786 431 421 282 486 149 428 201 84 60 180 337 139 43 41 347 63 392 63 370 284 159
is_linear=0
shrinkage=0.1


Tree=24
num_leaves=31
num_cat=0
split_feature=3 21 16 9 11 6 7 8 15 15 19 9 2 10 19 23 4 8 21 10 12 4 24 19 4 19 28 23 21 2
split_gain=22.3549 9.98096 8.76938 8.1005 7.97616 9.36698 16.3926 6.31154 5.46916 5.4501 4.86643 5.8299 4.8287 6.00271 5.27472 4.20745 4.02046 3.44748 3.88906 2.00941 1.8884 3.32867 1.85186 2.74676 1.61325 1.39772 1.2633 0.262581 0.00233903 0.00212989
threshold=1.0000000180025095e-35 99.450000000000017 1.0000000180025095e-35 1.0000000180025095e-35 1.0000000180025095e-35 1.0000000180025095e-35 1.0000000180025095e-35 1.0000000180025095e-35 1.0000000180025095e-35 1.0000000180025095e-35 62.750000000000007 1.0000000180025095e-35 1.0000000180025095e-35 1.0000000180025095e-35 86.750000000000014 83.950000000000017 1.0000000180025095e-35 1.0000000180025095e-35 98.450000000000017 1.0000000180025095e-35 1.0000000180025095e-35 1.0000000180025095e-35 39.500000000000007 99.850000000000009 1.0000000180025095e-35 91.550000000000011 1.0000000180025095e-35 78.250000000000014 99.050000000000011 1.0000000180025095e-35
decision_type=2 2 2 2 2 2 2 2 2 2 2 2 2 2 2 2 2 2 2 2 2 2 2 2 2 2 2 2 2 2
left_child=1 2 4 9 5 8 7 -7 10 12 27 -12 13 14 15 -3 25 18 -8 20 21 22 23 -5 -16 -15 -9 -1 -19 -6
right_child=-2 3 -4 19 29 6 17 26 -10 -11 11 -13 -14 16 24 -17 -18 28 -20 -21 -22 -23 -24 -25 -26 -27 -28 -29 -30 -31
leaf_value=0.028182707432086285 -0.068420952785717401 -0.070546203834317422 -0.068862811715915323 -0.039778675598186208 -0.072735310436715161 0.21745983272550742 0.078754593861158184 0.0020635045172600662 -0.043900126696662559 -0.07053081443001831 0.13195651332161237 0.055153141059896153 -0.068394405351443616 0.12615100268148366 0.11425389358603494 0.11973916798362057 -0.071174372889158843 -0.071713378873404163 -0.053820379981484173 -0.068780529527814563 -0.068721217418619793 -0.069488904852114078 0.12958938556461733 0.12402670886137733 0.2030648476922895 0.011798200616798361 0.094275369315125007 -0.01465603915971894 -0.075310024694670588 -0.068340990368391599
leaf_weight=2.717733033001422 34.104270007461309 2.6993843056261584 6.6711403075605622 3.1245338469743711 3.4773006569594136 3.9405747056007403 4.2754025906324387 2.5900822505354881 3.1518903151154509 4.934542801231145 26.890427900478244 15.626669604331253 3.3638257756829253 1.9544160030782221 7.2898568455129844 2.0402877181768417 4.5447362400591373 9.5704811215400678 4.5862875804305077 16.814761025831103 5.0916267503052941 3.7608599215745926 1.9697083905339239 1.5224868617951868 2.8430486209690571 2.3590342588722706 3.4844174757599831 3.0217184238135815 2.229378007352353 1.6153959557414053
leaf_count=19 982 42 168 45 38 17 23 22 26 90 193 125 94 16 68 21 58 201 36 457 136 71 24 19 18 30 26 25 33 49
internal_value=0.0050104 0.0208443 0.0416398 -0.00950159 0.0500959 0.0576301 0.0138999 0.118896 0.0837249 0.0261293 0.0920607 0.103728 0.0437333 0.0596274 0.0984422 0.011366 -0.00554119 -0.036994 0.0101416 -0.0448512 -0.0188405 0.00563276 0.0483309 0.0138883 0.139172 0.0636112 0.0549575 0.00562887 -0.0723929 -0.0713414
internal_weight=192.266 158.162 93.8489 64.3131 87.1778 82.0851 30.6766 10.0151 51.4084 32.0291 48.2565 42.5171 27.0946 23.7308 14.8726 4.73967 8.85819 20.6615 8.86169 32.284 15.4692 10.3776 6.61673 4.64702 10.1329 4.31345 6.0745 5.73945 11.7999 5.0927
internal_count=3172 2190 1001 1189 833 746 358 65 388 437 362 318 347 253 149 63 104 293 59 752 295 159 88 64 86 46 48 44 234 87
is_linear=0
shrinkage=0.1


Tree=25
num_leaves=31
num_cat=0
split_feature=7 19 11 21 13 12 22 14 5 9 3 21 9 3 2 9 22 19 19 22 21 19 22 21 19 24 8 21 21 19
split_gain=65.741 44.9668 50.8803 57.4038 36.0434 38.3898 22.3383 21.258 9.09583 6.17279 5.884 5.63495 4.18366 3.74939 3.26718 2.97039 2.9305 1.14951 1.00899 0.803901 1.61092 0.695447 0.519525 0.484927 0.109483 0.0928968 0.0670305 0.0570003 0.0195768 0.0190246
threshold=1.0000000180025095e-35 118.85000000000001 1.0000000180025095e-35 103.05000000000001 1.0000000180025095e-35 1.0000000180025095e-35 145.75000000000003 1.0000000180025095e-35 1.0000000180025095e-35 1.0000000180025095e-35 1.0000000180025095e-35 101.45000000000002 1.0000000180025095e-35 1.0000000180025095e-35 1.0000000180025095e-35 1.0000000180025095e-35 121.45000000000002 119.95000000000002 76.050000000000011 118.75000000000001 98.850000000000009 101.65000000000002 144.05000000000004 101.05000000000001 99.550000000000011 70.500000000000014 1.0000000180025095e-35 98.350000000000009 103.05000000000001 77.15000000000002
decision_type=2 2 2 2 2 2 2 2 2 2 2 2 2 2 2 2 2 2 2 2 2 2 2 2 2 2 2 2 2 2
left_child=1 2 3 4 5 6 7 -1 12 16 -8 22 -7 14 15 -4 -6 -3 -10 20 -15 23 25 -11 -16 26 27 -2 -19 -29
right_child=11 17 13 -5 9 8 10 -9 18 21 -12 -13 -14 19 24 -17 -18 28 -20 -21 -22 -23 -24 -25 -26 -27 -28 29 -30 -31
leaf_value=-0.05263314401420395 -0.080158390829653259 0.04383502731339646 -0.025819006043072003 0.083928275404293484 0.037248625871512814 -0.064249458050207348 -0.010447261658135372 0.032598972809198754 0.049557164478575735 0.068250038487307083 0.098549876149557902 0.024295352224256314 0.033322278971807277 0.082693921043508922 0.085465119132036138 0.05402505973786529 -0.046836491019384287 0.085133874677294108 0.091086527136873277 0.08236772985346813 0.010983567536661338 0.053332932120493219 -0.04972653796830892 0.094262157893084272 0.065983073977420925 -0.068277207372537008 -0.081315423260747741 -0.087230491865736628 0.080749165934807382 -0.093917851389693954
leaf_weight=359.72452709078789 7.4393819868564632 7.7381802201271048 10.366537630558014 58.10841415822506 10.586328446865084 7.3375083506107339 7.7608338743448266 31.854099482297897 7.538164645433425 12.212334722280504 13.687783628702164 5.4022034406661978 10.956277400255203 8.1669809371232969 6.7808436900377291 8.4633463323116302 6.8117614090442649 59.966778740286827 26.12772810459137 60.9095458984375 5.0819225758314124 10.292317137122152 5.1685219407081595 17.346626400947571 5.0200418531894684 4.5009418129920951 64.681418195366859 8.3165508061647433 12.265314429998396 8.7088343203067762
leaf_count=1209 27 25 29 241 32 21 28 98 25 40 46 16 33 35 27 24 20 240 95 268 19 37 20 64 20 20 295 31 57 30
internal_value=-0.000643425 0.00950593 0.00122342 -0.0103564 -0.0208473 -0.0300655 -0.0402568 -0.0456997 0.0509455 0.0540238 0.059111 -0.0751539 -0.00581306 0.065355 0.0359228 0.010068 0.00432732 0.0804652 0.0817876 0.0775118 0.0551878 0.0757201 -0.0805907 0.0835152 0.0771775 -0.0822941 -0.0830018 -0.0874605 0.0843893 -0.0906512
internal_weight=869.322 765.104 685.134 580.345 522.236 464.987 413.027 391.579 51.9597 57.2494 21.4486 104.218 18.2938 104.789 30.6308 18.8299 17.3981 79.9703 33.6659 74.1584 13.2489 39.8513 98.8156 29.559 11.8009 93.6471 89.1462 24.4648 72.2321 17.0254
internal_count=3172 2733 2411 1989 1748 1555 1381 1307 174 193 74 439 54 422 100 53 52 322 120 322 54 141 423 104 47 403 383 88 297 61
is_linear=0
shrinkage=0.1


Tree=26
num_leaves=31
num_cat=0
split_feature=7 16 19 11 21 4 3 3 26 6 10 8 13 3 4 19 22 5 21 22 22 24 22 24 8 19 4 19 24 21
split_gain=52.8445 38.1476 30.6878 31.27 37.3468 27.087 32.8306 21.1177 27.7935 10.2242 6.6086 6.13165 5.49518 4.65966 3.32039 3.28207 2.56187 1.7241 1.60791 1.21756 1.12277 0.942709 0.381185 0.380095 0.359322 0.32436 0.142864 0.122083 0.191242 0.0135217
threshold=1.0000000180025095e-35 1.0000000180025095e-35 119.95000000000002 1.0000000180025095e-35 103.05000000000001 1.0000000180025095e-35 1.0000000180025095e-35 1.0000000180025095e-35 1.0000000180025095e-35 1.0000000180025095e-35 1.0000000180025095e-35 1.0000000180025095e-35 1.0000000180025095e-35 1.0000000180025095e-35 1.0000000180025095e-35 90.950000000000017 118.05000000000001 1.0000000180025095e-35 98.450000000000017 115.25000000000001 113.55000000000001 33.500000000000007 111.45000000000002 33.500000000000007 1.0000000180025095e-35 59.350000000000001 1.0000000180025095e-35 76.350000000000009 44.500000000000007 103.05000000000001
decision_type=2 2 2 2 2 2 2 2 2 2 2 2 2 2 2 2 2 2 2 2 2 2 2 2 2 2 2 2 2 2
left_child=1 2 3 4 5 7 10 12 -9 11 -7 16 -1 14 -5 25 -2 18 -11 -17 -13 -16 -15 -8 -19 -3 -27 -28 -29 -4
right_child=9 15 29 13 -6 6 23 8 -10 17 -12 20 -14 22 21 19 -18 24 -20 -21 -22 -23 -24 -25 -26 26 27 28 -30 -31
leaf_value=-0.017095090753208191 -0.060094562784489915 0.061639148129755378 -0.082505991801375217 0.02484258413313889 -0.081074105051868295 0.029684753038227759 -0.0619977247998185 0.048020075672468215 -0.10735598452670735 0.015038247579180828 0.076692210972790109 0.032135990923512062 -0.055972648605607835 -0.056772447412196614 -0.030258845010959698 0.054670324986427404 0.015623169203308813 0.10031088812894062 0.081010789832210772 -0.009166247519152404 0.079298386832161546 -0.074661572406197335 -0.080319353753154549 -0.090039065478549368 0.083156747493151328 0.096823711205823434 0.087349714454492855 0.06064347233858719 0.087298560647893306 -0.078603223550674575
leaf_weight=193.02670074999332 9.5323337614536303 6.6048143506050101 54.521182119846344 8.1781616806983966 52.362641975283623 45.4334936439991 8.5663200765848178 94.17585089802742 13.116040408611296 7.070575147867201 87.515486180782318 10.087353378534319 44.793507516384125 7.7894681841135016 10.111135020852091 6.0131126642227155 8.4116771519184095 15.902068138122557 7.7367424368858337 5.9385766386985779 10.103661656379698 9.0710027217864972 58.55665622651577 11.094155281782148 52.605259254574776 8.7949714660644513 17.700527980923656 5.4343334883451444 5.3333303779363632 10.60397759079933
leaf_count=579 27 25 239 27 242 143 29 271 40 21 311 35 166 35 35 21 25 48 23 20 38 33 282 42 222 30 68 20 20 55
internal_value=-0.000455871 -0.0101874 -0.0164546 -0.00983719 -0.000740959 0.00771046 0.0427918 -0.00780261 0.0290259 0.0608208 0.0606281 0.0179349 -0.0244177 -0.0632347 -0.0285099 0.0694068 -0.0246001 0.0804507 0.0495085 0.0229511 0.0557362 -0.0512564 -0.0775548 -0.0778211 0.0871386 0.0820635 0.0856837 0.0822421 0.073846 -0.0818705
internal_weight=886.185 764.735 708.916 643.791 550.084 497.722 152.609 345.112 107.292 121.45 132.949 38.135 237.82 93.7064 27.3603 55.8197 17.944 83.3146 14.8073 11.9517 20.191 19.1821 66.3461 19.6605 68.5073 43.868 37.2632 28.4682 10.7677 65.1252
internal_count=3172 2733 2529 2235 1823 1581 525 1056 311 439 454 125 745 412 95 204 52 314 44 41 73 68 317 71 270 163 138 108 40 294
is_linear=0
shrinkage=0.1


Tree=27
num_leaves=31
num_cat=0
split_feature=20 9 18 14 2 7 6 12 13 21 8 8 23 24 10 19 21 21 12 21 21 20 24 23 10 21 21 20 21 15
split_gain=20.9061 8.31254 7.76827 8.45467 8.22272 8.77523 10.5055 7.08279 6.6327 6.35473 4.2406 3.98549 2.39591 3.44121 1.69585 1.67636 2.56621 1.69727 1.51822 1.44585 6.24515 2.01689 1.07668 0.414957 0.326713 0.00460492 0.00114235 0.000795152 0.000502566 0.000268951
threshold=95.15000000000002 1.0000000180025095e-35 1.0000000180025095e-35 1.0000000180025095e-35 1.0000000180025095e-35 1.0000000180025095e-35 1.0000000180025095e-35 1.0000000180025095e-35 1.0000000180025095e-35 100.05000000000001 1.0000000180025095e-35 1.0000000180025095e-35 81.450000000000017 51.500000000000007 1.0000000180025095e-35 84.750000000000014 98.850000000000009 98.350000000000009 1.0000000180025095e-35 102.75000000000001 102.95000000000002 98.850000000000009 34.500000000000007 66.550000000000011 1.0000000180025095e-35 98.850000000000009 100.65000000000002 98.850000000000009 99.250000000000014 1.0000000180025095e-35
decision_type=2 2 2 2 2 2 2 2 2 2 2 2 2 2 2 2 2 2 2 2 2 2 2 2 2 2 2 2 2 2
left_child=-1 2 3 4 5 7 11 8 -2 12 -8 -7 13 15 18 16 24 -17 19 21 -21 -11 -14 -4 -3 -5 -16 -24 -25 -27
right_child=1 9 23 25 -6 6 10 -9 -10 14 -12 -13 22 -15 26 17 -18 -19 -20 20 -22 -23 27 28 -26 29 -28 -29 -30 -31
leaf_value=-0.068184569147423574 0.10091274902341969 -0.024955032781445619 -0.012057032268900869 -0.075256546102129007 -0.068907920284658905 0.14399002752090295 0.022329555180647054 -0.072474609858879144 -0.042695996875818647 -0.070213357042130928 -0.071969027179678888 0.033915037817361375 0.024060491992644602 0.1518703473998583 -0.071493070709664694 0.10884296070272381 0.069022239569672225 0.010340966533741437 -0.068492559550806048 0.22189345622430412 -0.069019352897235264 0.044604234336855952 -0.069858714695798518 -0.069123319258461782 -0.078887432830125975 -0.070398364721564868 -0.068379457738267174 -0.073155288357364054 -0.071065531842446114 -0.068713339204978255
leaf_weight=32.02019127830863 48.649120070040226 2.095837373286491 1.5494370274245728 2.0938968956470481 5.3557274285703889 6.2756709977984411 8.669655054807663 2.7774034291505805 3.4437522552907458 3.7823235597461444 10.599087422713637 6.9122929908335209 1.9556473344564427 2.5685423836112014 1.2949154395610101 3.6017902456223965 2.7249034158885479 3.4011222999542952 4.3179796487092981 1.3308640196919443 1.6563281454145906 2.5690640956163406 1.7590825892984869 4.5685277432203293 2.4203943349421024 1.6562577057629826 13.089151589199899 1.2527742832899091 1.880767712369561 2.2127354554831982
leaf_count=1037 345 26 22 16 136 23 57 37 46 64 232 69 17 18 24 22 25 33 130 10 39 32 31 122 19 25 407 15 32 61
internal_value=0.00543518 0.0205013 0.0362554 0.0439408 0.0513665 0.0587429 0.0175264 0.0831232 0.0914191 -0.0132214 -0.0295409 0.0862957 0.0273022 0.0453306 -0.0446974 0.0261189 -0.00761779 0.0610032 -0.0194585 0.00321385 0.0605891 -0.0237709 -0.0337152 -0.0585257 -0.0538591 -0.0714791 -0.0686598 -0.0712299 -0.0696897 -0.0694347
internal_weight=188.485 156.465 106.644 98.6456 92.6827 87.327 32.4567 54.8703 52.0929 49.8207 19.2687 13.188 21.7801 16.8126 28.0406 14.244 7.24114 7.00291 13.6566 9.33858 2.98719 6.35139 4.9675 7.99873 4.51623 5.96289 14.3841 3.01186 6.4493 3.86899
internal_count=3172 2135 1223 1047 945 809 381 428 391 912 289 92 206 143 706 125 70 55 275 145 49 96 63 176 45 102 431 46 154 86
is_linear=0
shrinkage=0.1


Tree=28
num_leaves=31
num_cat=0
split_feature=8 19 11 21 13 12 20 15 5 10 9 9 20 21 24 19 21 19 19 6 19 20 20 28 20 19 21 19 20 4
split_gain=55.8041 38.5085 45.4225 48.5092 29.8125 32.8255 23.4495 23.1122 9.02236 8.71067 4.07596 3.28568 2.96239 2.34576 1.14402 1.14132 0.821957 1.00161 0.691161 0.689026 1.21462 0.535138 0.44855 0.276078 0.191455 0.150684 0.0440531 0.0412607 0.0175619 0.0171297
threshold=1.0000000180025095e-35 118.85000000000001 1.0000000180025095e-35 103.05000000000001 1.0000000180025095e-35 1.0000000180025095e-35 89.950000000000017 1.0000000180025095e-35 1.0000000180025095e-35 1.0000000180025095e-35 1.0000000180025095e-35 1.0000000180025095e-35 97.350000000000009 101.15000000000002 33.500000000000007 119.95000000000002 99.550000000000011 78.350000000000009 71.550000000000011 1.0000000180025095e-35 76.65000000000002 98.350000000000009 97.050000000000011 1.0000000180025095e-35 99.550000000000011 112.55000000000001 99.250000000000014 99.250000000000014 95.550000000000011 1.0000000180025095e-35
decision_type=2 2 2 2 2 2 2 2 2 2 2 2 2 2 2 2 2 2 2 2 2 2 2 2 2 2 2 2 2 2
left_child=1 2 3 4 5 6 26 -8 11 10 -6 -7 16 19 -14 -3 17 -4 -10 20 -2 -22 23 -11 -24 -19 -1 -21 -17 -30
right_child=13 15 12 -5 9 8 7 -9 18 22 -12 -13 14 -15 -16 28 -18 25 -20 27 21 -23 24 -25 -26 -27 -28 -29 29 -31
